<?xml version="1.0"?>
<MethodSetup Method="BDT::BDT">
  <GeneralInfo>
    <Info name="TMVA Release" value="4.2.0 [262656]"/>
    <Info name="ROOT Release" value="5.34/12 [336396]"/>
    <Info name="Creator" value="ejansen"/>
    <Info name="Date" value="Tue Aug 12 14:51:28 2014"/>
    <Info name="Host" value="Linux lxbuild175.cern.ch 2.6.18-308.4.1.el5 #1 SMP Wed Apr 18 16:26:27 CEST 2012 x86_64 x86_64 x86_64 GNU/Linux"/>
    <Info name="Dir" value="/unix/atlas2/ejansen/Summer_2014_Paper/RootAnalysis"/>
    <Info name="Training events" value="393966"/>
    <Info name="TrainingTime" value="6.61317971e+01"/>
    <Info name="AnalysisType" value="Classification"/>
  </GeneralInfo>
  <Options>
    <Option name="V" modified="Yes">False</Option>
    <Option name="VerbosityLevel" modified="No">Default</Option>
    <Option name="VarTransform" modified="No">None</Option>
    <Option name="H" modified="Yes">False</Option>
    <Option name="CreateMVAPdfs" modified="No">False</Option>
    <Option name="IgnoreNegWeightsInTraining" modified="No">False</Option>
    <Option name="NTrees" modified="Yes">1000</Option>
    <Option name="MaxDepth" modified="Yes">3</Option>
    <Option name="MinNodeSize" modified="Yes">2.5%</Option>
    <Option name="nCuts" modified="Yes">20</Option>
    <Option name="BoostType" modified="Yes">AdaBoost</Option>
    <Option name="AdaBoostR2Loss" modified="No">quadratic</Option>
    <Option name="UseBaggedBoost" modified="Yes">True</Option>
    <Option name="Shrinkage" modified="No">1.000000e+00</Option>
    <Option name="AdaBoostBeta" modified="Yes">5.000000e-01</Option>
    <Option name="UseRandomisedTrees" modified="No">False</Option>
    <Option name="UseNvars" modified="No">3</Option>
    <Option name="UsePoissonNvars" modified="No">True</Option>
    <Option name="BaggedSampleFraction" modified="Yes">5.000000e-01</Option>
    <Option name="UseYesNoLeaf" modified="No">True</Option>
    <Option name="NegWeightTreatment" modified="No">inverseboostnegweights</Option>
    <Option name="Css" modified="No">1.000000e+00</Option>
    <Option name="Cts_sb" modified="No">1.000000e+00</Option>
    <Option name="Ctb_ss" modified="No">1.000000e+00</Option>
    <Option name="Cbb" modified="No">1.000000e+00</Option>
    <Option name="NodePurityLimit" modified="No">5.000000e-01</Option>
    <Option name="SeparationType" modified="Yes">giniindex</Option>
    <Option name="DoBoostMonitor" modified="No">False</Option>
    <Option name="UseFisherCuts" modified="No">False</Option>
    <Option name="MinLinCorrForFisher" modified="No">8.000000e-01</Option>
    <Option name="UseExclusiveVars" modified="No">False</Option>
    <Option name="DoPreselection" modified="No">False</Option>
    <Option name="SigToBkgFraction" modified="No">1.000000e+00</Option>
    <Option name="PruneMethod" modified="No">nopruning</Option>
    <Option name="PruneStrength" modified="No">0.000000e+00</Option>
    <Option name="PruningValFraction" modified="No">5.000000e-01</Option>
    <Option name="nEventsMin" modified="No">0</Option>
    <Option name="UseBaggedGrad" modified="No">False</Option>
    <Option name="GradBaggingFraction" modified="No">5.000000e-01</Option>
    <Option name="UseNTrainEvents" modified="No">0</Option>
    <Option name="NNodesMax" modified="No">0</Option>
  </Options>
  <Variables NVar="10">
    <Variable VarIndex="0" Expression="mX" Label="mX" Title="m_{X}" Unit="GeV" Internal="mX" Type="D" Min="1.87765457e+02" Max="3.78050244e+03"/>
    <Variable VarIndex="1" Expression="yX" Label="yX" Title="y_{X}" Unit="" Internal="yX" Type="D" Min="-2.35930347e+00" Max="2.41665983e+00"/>
    <Variable VarIndex="2" Expression="ptX" Label="ptX" Title="pt_{X}" Unit="GeV" Internal="ptX" Type="D" Min="1.10261589e-01" Max="1.17093384e+03"/>
    <Variable VarIndex="3" Expression="m12" Label="m12" Title="m_{12}" Unit="GeV" Internal="m12" Type="D" Min="9.00000305e+01" Max="1.39999374e+02"/>
    <Variable VarIndex="4" Expression="m34" Label="m34" Title="m_{34}" Unit="GeV" Internal="m34" Type="D" Min="8.50000534e+01" Max="1.34999252e+02"/>
    <Variable VarIndex="5" Expression="absCosThetaStar" Label="absCosThetaStar" Title="|cos(#Theta*)|" Unit="" Internal="absCosThetaStar" Type="D" Min="1.38952075e-07" Max="9.99949276e-01"/>
    <Variable VarIndex="6" Expression="cosTheta1" Label="cosTheta1" Title="|cos(#theta_{1})|" Unit="" Internal="cosTheta1" Type="D" Min="-9.99637067e-01" Max="9.99988019e-01"/>
    <Variable VarIndex="7" Expression="cosTheta2" Label="cosTheta2" Title="|cos(#theta_{2})|" Unit="" Internal="cosTheta2" Type="D" Min="-9.99946594e-01" Max="9.99916852e-01"/>
    <Variable VarIndex="8" Expression="Phi" Label="Phi" Title="#Phi" Unit="" Internal="Phi" Type="D" Min="-3.14159226e+00" Max="3.14158416e+00"/>
    <Variable VarIndex="9" Expression="modPhi1" Label="modPhi1" Title="|#Phi_{1}| - #pi/2" Unit="" Internal="modPhi1" Type="D" Min="-1.57079208e+00" Max="1.57078433e+00"/>
  </Variables>
  <Spectators NSpec="0"/>
  <Classes NClass="2">
    <Class Name="Signal" Index="0"/>
    <Class Name="Background" Index="1"/>
  </Classes>
  <Transformations NTransformations="0"/>
  <MVAPdfs/>
  <Weights NTrees="135" AnalysisType="0">
    <BinaryTree type="DecisionTree" boostWeight="4.1297849375670570e-01" itree="0">
      <Node pos="s" depth="0" NCoef="0" IVar="3" Cut="1.0904747772216797e+02" cType="0" res="-9.9000000000000000e+01" rms="0.0000000000000000e+00" purity="5.0790089368820190e-01" nType="0">
        <Node pos="l" depth="1" NCoef="0" IVar="5" Cut="6.6644173860549927e-01" cType="1" res="-9.9000000000000000e+01" rms="0.0000000000000000e+00" purity="6.0592913627624512e-01" nType="0">
          <Node pos="l" depth="2" NCoef="0" IVar="3" Cut="1.3262989807128906e+02" cType="1" res="-9.9000000000000000e+01" rms="0.0000000000000000e+00" purity="6.6433203220367432e-01" nType="0">
            <Node pos="l" depth="3" NCoef="0" IVar="-1" Cut="0.0000000000000000e+00" cType="1" res="-9.9000000000000000e+01" rms="0.0000000000000000e+00" purity="7.0235300064086914e-01" nType="1"/>
            <Node pos="r" depth="3" NCoef="0" IVar="-1" Cut="0.0000000000000000e+00" cType="1" res="-9.9000000000000000e+01" rms="0.0000000000000000e+00" purity="2.6269993185997009e-01" nType="-1"/>
          </Node>
          <Node pos="r" depth="2" NCoef="0" IVar="2" Cut="9.3946411132812500e+01" cType="0" res="-9.9000000000000000e+01" rms="0.0000000000000000e+00" purity="2.8539440035820007e-01" nType="0">
            <Node pos="l" depth="3" NCoef="0" IVar="-1" Cut="0.0000000000000000e+00" cType="1" res="-9.9000000000000000e+01" rms="0.0000000000000000e+00" purity="5.2422791719436646e-01" nType="1"/>
            <Node pos="r" depth="3" NCoef="0" IVar="-1" Cut="0.0000000000000000e+00" cType="1" res="-9.9000000000000000e+01" rms="0.0000000000000000e+00" purity="1.7670133709907532e-01" nType="-1"/>
          </Node>
        </Node>
        <Node pos="r" depth="1" NCoef="0" IVar="-1" Cut="4.7615447640419006e-01" cType="1" res="-9.9000000000000000e+01" rms="0.0000000000000000e+00" purity="2.8772604465484619e-01" nType="-1"/>
      </Node>
    </BinaryTree>
    <BinaryTree type="DecisionTree" boostWeight="3.3626104001217250e-01" itree="1">
      <Node pos="s" depth="0" NCoef="0" IVar="4" Cut="1.0642768096923828e+02" cType="0" res="-9.9000000000000000e+01" rms="0.0000000000000000e+00" purity="4.7647643089294434e-01" nType="0">
        <Node pos="l" depth="1" NCoef="0" IVar="5" Cut="6.1898070573806763e-01" cType="1" res="-9.9000000000000000e+01" rms="0.0000000000000000e+00" purity="5.7731938362121582e-01" nType="0">
          <Node pos="l" depth="2" NCoef="0" IVar="4" Cut="1.2819546508789062e+02" cType="1" res="-9.9000000000000000e+01" rms="0.0000000000000000e+00" purity="6.3612061738967896e-01" nType="0">
            <Node pos="l" depth="3" NCoef="0" IVar="-1" Cut="0.0000000000000000e+00" cType="1" res="-9.9000000000000000e+01" rms="0.0000000000000000e+00" purity="6.7331385612487793e-01" nType="1"/>
            <Node pos="r" depth="3" NCoef="0" IVar="-1" Cut="0.0000000000000000e+00" cType="1" res="-9.9000000000000000e+01" rms="0.0000000000000000e+00" purity="3.7837666273117065e-01" nType="-1"/>
          </Node>
          <Node pos="r" depth="2" NCoef="0" IVar="-1" Cut="7.8222614526748657e-01" cType="1" res="-9.9000000000000000e+01" rms="0.0000000000000000e+00" purity="3.3439695835113525e-01" nType="-1"/>
        </Node>
        <Node pos="r" depth="1" NCoef="0" IVar="-1" Cut="5.5969463348388672e+01" cType="0" res="-9.9000000000000000e+01" rms="0.0000000000000000e+00" purity="3.1593888998031616e-01" nType="-1"/>
      </Node>
    </BinaryTree>
    <BinaryTree type="DecisionTree" boostWeight="2.6694565408885196e-01" itree="2">
      <Node pos="s" depth="0" NCoef="0" IVar="2" Cut="1.6746589660644531e+02" cType="0" res="-9.9000000000000000e+01" rms="0.0000000000000000e+00" purity="4.9652493000030518e-01" nType="0">
        <Node pos="l" depth="1" NCoef="0" IVar="-1" Cut="4.6151535034179688e+02" cType="0" res="-9.9000000000000000e+01" rms="0.0000000000000000e+00" purity="7.0946437120437622e-01" nType="1"/>
        <Node pos="r" depth="1" NCoef="0" IVar="4" Cut="9.9285293579101562e+01" cType="0" res="-9.9000000000000000e+01" rms="0.0000000000000000e+00" purity="4.5971161127090454e-01" nType="0">
          <Node pos="l" depth="2" NCoef="0" IVar="5" Cut="4.6884936094284058e-01" cType="1" res="-9.9000000000000000e+01" rms="0.0000000000000000e+00" purity="5.1308465003967285e-01" nType="0">
            <Node pos="l" depth="3" NCoef="0" IVar="-1" Cut="0.0000000000000000e+00" cType="1" res="-9.9000000000000000e+01" rms="0.0000000000000000e+00" purity="5.8144915103912354e-01" nType="1"/>
            <Node pos="r" depth="3" NCoef="0" IVar="-1" Cut="0.0000000000000000e+00" cType="1" res="-9.9000000000000000e+01" rms="0.0000000000000000e+00" purity="3.8949808478355408e-01" nType="-1"/>
          </Node>
          <Node pos="r" depth="2" NCoef="0" IVar="-1" Cut="5.5959491729736328e+01" cType="0" res="-9.9000000000000000e+01" rms="0.0000000000000000e+00" purity="2.9253524541854858e-01" nType="-1"/>
        </Node>
      </Node>
    </BinaryTree>
    <BinaryTree type="DecisionTree" boostWeight="1.7553868319358759e-01" itree="3">
      <Node pos="s" depth="0" NCoef="0" IVar="3" Cut="9.9523780822753906e+01" cType="0" res="-9.9000000000000000e+01" rms="0.0000000000000000e+00" purity="5.0094068050384521e-01" nType="0">
        <Node pos="l" depth="1" NCoef="0" IVar="2" Cut="9.8606315612792969e+01" cType="0" res="-9.9000000000000000e+01" rms="0.0000000000000000e+00" purity="5.3344577550888062e-01" nType="0">
          <Node pos="l" depth="2" NCoef="0" IVar="3" Cut="1.3036236572265625e+02" cType="1" res="-9.9000000000000000e+01" rms="0.0000000000000000e+00" purity="6.6039276123046875e-01" nType="0">
            <Node pos="l" depth="3" NCoef="0" IVar="-1" Cut="0.0000000000000000e+00" cType="1" res="-9.9000000000000000e+01" rms="0.0000000000000000e+00" purity="6.9360941648483276e-01" nType="1"/>
            <Node pos="r" depth="3" NCoef="0" IVar="-1" Cut="0.0000000000000000e+00" cType="1" res="-9.9000000000000000e+01" rms="0.0000000000000000e+00" purity="4.2972630262374878e-01" nType="-1"/>
          </Node>
          <Node pos="r" depth="2" NCoef="0" IVar="3" Cut="1.3036219787597656e+02" cType="1" res="-9.9000000000000000e+01" rms="0.0000000000000000e+00" purity="4.8378711938858032e-01" nType="0">
            <Node pos="l" depth="3" NCoef="0" IVar="-1" Cut="0.0000000000000000e+00" cType="1" res="-9.9000000000000000e+01" rms="0.0000000000000000e+00" purity="5.0973284244537354e-01" nType="1"/>
            <Node pos="r" depth="3" NCoef="0" IVar="-1" Cut="0.0000000000000000e+00" cType="1" res="-9.9000000000000000e+01" rms="0.0000000000000000e+00" purity="2.6706975698471069e-01" nType="-1"/>
          </Node>
        </Node>
        <Node pos="r" depth="1" NCoef="0" IVar="-1" Cut="6.1903071403503418e-01" cType="1" res="-9.9000000000000000e+01" rms="0.0000000000000000e+00" purity="2.7773976325988770e-01" nType="-1"/>
      </Node>
    </BinaryTree>
    <BinaryTree type="DecisionTree" boostWeight="1.7624307452355789e-01" itree="4">
      <Node pos="s" depth="0" NCoef="0" IVar="2" Cut="9.3800476074218750e+01" cType="0" res="-9.9000000000000000e+01" rms="0.0000000000000000e+00" purity="4.5456036925315857e-01" nType="0">
        <Node pos="l" depth="1" NCoef="0" IVar="5" Cut="7.1420836448669434e-01" cType="1" res="-9.9000000000000000e+01" rms="0.0000000000000000e+00" purity="5.8064043521881104e-01" nType="0">
          <Node pos="l" depth="2" NCoef="0" IVar="3" Cut="1.0666709136962891e+02" cType="0" res="-9.9000000000000000e+01" rms="0.0000000000000000e+00" purity="6.0945993661880493e-01" nType="0">
            <Node pos="l" depth="3" NCoef="0" IVar="-1" Cut="0.0000000000000000e+00" cType="1" res="-9.9000000000000000e+01" rms="0.0000000000000000e+00" purity="6.4138132333755493e-01" nType="1"/>
            <Node pos="r" depth="3" NCoef="0" IVar="-1" Cut="0.0000000000000000e+00" cType="1" res="-9.9000000000000000e+01" rms="0.0000000000000000e+00" purity="4.8545473814010620e-01" nType="-1"/>
          </Node>
          <Node pos="r" depth="2" NCoef="0" IVar="-1" Cut="0.0000000000000000e+00" cType="1" res="-9.9000000000000000e+01" rms="0.0000000000000000e+00" purity="3.9667677879333496e-01" nType="-1"/>
        </Node>
        <Node pos="r" depth="1" NCoef="0" IVar="-1" Cut="7.0326066017150879e-01" cType="1" res="-9.9000000000000000e+01" rms="0.0000000000000000e+00" purity="4.0704265236854553e-01" nType="-1"/>
      </Node>
    </BinaryTree>
    <BinaryTree type="DecisionTree" boostWeight="1.5073034701615318e-01" itree="5">
      <Node pos="s" depth="0" NCoef="0" IVar="5" Cut="7.1424955129623413e-01" cType="1" res="-9.9000000000000000e+01" rms="0.0000000000000000e+00" purity="4.8432832956314087e-01" nType="0">
        <Node pos="l" depth="1" NCoef="0" IVar="2" Cut="4.9458728790283203e+01" cType="0" res="-9.9000000000000000e+01" rms="0.0000000000000000e+00" purity="5.1134616136550903e-01" nType="0">
          <Node pos="l" depth="2" NCoef="0" IVar="3" Cut="1.2809497070312500e+02" cType="1" res="-9.9000000000000000e+01" rms="0.0000000000000000e+00" purity="5.6453639268875122e-01" nType="0">
            <Node pos="l" depth="3" NCoef="0" IVar="-1" Cut="0.0000000000000000e+00" cType="1" res="-9.9000000000000000e+01" rms="0.0000000000000000e+00" purity="5.8885049819946289e-01" nType="1"/>
            <Node pos="r" depth="3" NCoef="0" IVar="-1" Cut="0.0000000000000000e+00" cType="1" res="-9.9000000000000000e+01" rms="0.0000000000000000e+00" purity="4.2629435658454895e-01" nType="-1"/>
          </Node>
          <Node pos="r" depth="2" NCoef="0" IVar="-1" Cut="9.4521888732910156e+01" cType="0" res="-9.9000000000000000e+01" rms="0.0000000000000000e+00" purity="4.4816088676452637e-01" nType="-1"/>
        </Node>
        <Node pos="r" depth="1" NCoef="0" IVar="-1" Cut="1.0166453552246094e+02" cType="0" res="-9.9000000000000000e+01" rms="0.0000000000000000e+00" purity="2.7462771534919739e-01" nType="-1"/>
      </Node>
    </BinaryTree>
    <BinaryTree type="DecisionTree" boostWeight="1.3930133093783362e-01" itree="6">
      <Node pos="s" depth="0" NCoef="0" IVar="4" Cut="9.4523712158203125e+01" cType="0" res="-9.9000000000000000e+01" rms="0.0000000000000000e+00" purity="4.9341186881065369e-01" nType="0">
        <Node pos="l" depth="1" NCoef="0" IVar="4" Cut="1.2921707153320312e+02" cType="1" res="-9.9000000000000000e+01" rms="0.0000000000000000e+00" purity="5.2318871021270752e-01" nType="0">
          <Node pos="l" depth="2" NCoef="0" IVar="4" Cut="1.1600050354003906e+02" cType="0" res="-9.9000000000000000e+01" rms="0.0000000000000000e+00" purity="5.3986412286758423e-01" nType="0">
            <Node pos="l" depth="3" NCoef="0" IVar="-1" Cut="0.0000000000000000e+00" cType="1" res="-9.9000000000000000e+01" rms="0.0000000000000000e+00" purity="6.0981029272079468e-01" nType="1"/>
            <Node pos="r" depth="3" NCoef="0" IVar="-1" Cut="0.0000000000000000e+00" cType="1" res="-9.9000000000000000e+01" rms="0.0000000000000000e+00" purity="4.9165883660316467e-01" nType="-1"/>
          </Node>
          <Node pos="r" depth="2" NCoef="0" IVar="-1" Cut="1.1856994628906250e+02" cType="0" res="-9.9000000000000000e+01" rms="0.0000000000000000e+00" purity="2.8574651479721069e-01" nType="-1"/>
        </Node>
        <Node pos="r" depth="1" NCoef="0" IVar="2" Cut="4.6513275146484375e+01" cType="0" res="-9.9000000000000000e+01" rms="0.0000000000000000e+00" purity="3.2283475995063782e-01" nType="0">
          <Node pos="l" depth="2" NCoef="0" IVar="3" Cut="1.1142951202392578e+02" cType="0" res="-9.9000000000000000e+01" rms="0.0000000000000000e+00" purity="4.3472397327423096e-01" nType="0">
            <Node pos="l" depth="3" NCoef="0" IVar="-1" Cut="0.0000000000000000e+00" cType="1" res="-9.9000000000000000e+01" rms="0.0000000000000000e+00" purity="5.0459152460098267e-01" nType="1"/>
            <Node pos="r" depth="3" NCoef="0" IVar="-1" Cut="0.0000000000000000e+00" cType="1" res="-9.9000000000000000e+01" rms="0.0000000000000000e+00" purity="2.6470065116882324e-01" nType="-1"/>
          </Node>
          <Node pos="r" depth="2" NCoef="0" IVar="-1" Cut="3.6892426013946533e-01" cType="1" res="-9.9000000000000000e+01" rms="0.0000000000000000e+00" purity="1.5308293700218201e-01" nType="-1"/>
        </Node>
      </Node>
    </BinaryTree>
    <BinaryTree type="DecisionTree" boostWeight="1.4018785000132714e-01" itree="7">
      <Node pos="s" depth="0" NCoef="0" IVar="3" Cut="1.1380921936035156e+02" cType="0" res="-9.9000000000000000e+01" rms="0.0000000000000000e+00" purity="5.0146955251693726e-01" nType="0">
        <Node pos="l" depth="1" NCoef="0" IVar="3" Cut="1.3126931762695312e+02" cType="1" res="-9.9000000000000000e+01" rms="0.0000000000000000e+00" purity="5.5352145433425903e-01" nType="0">
          <Node pos="l" depth="2" NCoef="0" IVar="-1" Cut="1.4283961057662964e-01" cType="1" res="-9.9000000000000000e+01" rms="0.0000000000000000e+00" purity="5.8321154117584229e-01" nType="1"/>
          <Node pos="r" depth="2" NCoef="0" IVar="-1" Cut="1.3625782775878906e+02" cType="1" res="-9.9000000000000000e+01" rms="0.0000000000000000e+00" purity="3.8783168792724609e-01" nType="-1"/>
        </Node>
        <Node pos="r" depth="1" NCoef="0" IVar="-1" Cut="7.1425431966781616e-01" cType="1" res="-9.9000000000000000e+01" rms="0.0000000000000000e+00" purity="4.2612248659133911e-01" nType="-1"/>
      </Node>
    </BinaryTree>
    <BinaryTree type="DecisionTree" boostWeight="1.1723710052552989e-01" itree="8">
      <Node pos="s" depth="0" NCoef="0" IVar="4" Cut="9.4523544311523438e+01" cType="0" res="-9.9000000000000000e+01" rms="0.0000000000000000e+00" purity="4.9721378087997437e-01" nType="0">
        <Node pos="l" depth="1" NCoef="0" IVar="4" Cut="1.2728897094726562e+02" cType="1" res="-9.9000000000000000e+01" rms="0.0000000000000000e+00" purity="5.2165687084197998e-01" nType="0">
          <Node pos="l" depth="2" NCoef="0" IVar="-1" Cut="1.6737077331542969e+02" cType="0" res="-9.9000000000000000e+01" rms="0.0000000000000000e+00" purity="5.3893798589706421e-01" nType="1"/>
          <Node pos="r" depth="2" NCoef="0" IVar="-1" Cut="1.3059300231933594e+02" cType="1" res="-9.9000000000000000e+01" rms="0.0000000000000000e+00" purity="3.7983125448226929e-01" nType="-1"/>
        </Node>
        <Node pos="r" depth="1" NCoef="0" IVar="5" Cut="4.7584766149520874e-01" cType="1" res="-9.9000000000000000e+01" rms="0.0000000000000000e+00" purity="3.5951349139213562e-01" nType="0">
          <Node pos="l" depth="2" NCoef="0" IVar="4" Cut="8.9988487243652344e+01" cType="0" res="-9.9000000000000000e+01" rms="0.0000000000000000e+00" purity="4.6547019481658936e-01" nType="0">
            <Node pos="l" depth="3" NCoef="0" IVar="-1" Cut="0.0000000000000000e+00" cType="1" res="-9.9000000000000000e+01" rms="0.0000000000000000e+00" purity="5.2608072757720947e-01" nType="1"/>
            <Node pos="r" depth="3" NCoef="0" IVar="-1" Cut="0.0000000000000000e+00" cType="1" res="-9.9000000000000000e+01" rms="0.0000000000000000e+00" purity="3.9896002411842346e-01" nType="-1"/>
          </Node>
          <Node pos="r" depth="2" NCoef="0" IVar="-1" Cut="6.7525786161422729e-01" cType="1" res="-9.9000000000000000e+01" rms="0.0000000000000000e+00" purity="1.7678599059581757e-01" nType="-1"/>
        </Node>
      </Node>
    </BinaryTree>
    <BinaryTree type="DecisionTree" boostWeight="9.9582904856616430e-02" itree="9">
      <Node pos="s" depth="0" NCoef="0" IVar="5" Cut="6.6663932800292969e-01" cType="1" res="-9.9000000000000000e+01" rms="0.0000000000000000e+00" purity="4.8679885268211365e-01" nType="0">
        <Node pos="l" depth="1" NCoef="0" IVar="4" Cut="9.9285331726074219e+01" cType="0" res="-9.9000000000000000e+01" rms="0.0000000000000000e+00" purity="5.1219624280929565e-01" nType="0">
          <Node pos="l" depth="2" NCoef="0" IVar="-1" Cut="2.4655279541015625e+02" cType="0" res="-9.9000000000000000e+01" rms="0.0000000000000000e+00" purity="5.3639447689056396e-01" nType="1"/>
          <Node pos="r" depth="2" NCoef="0" IVar="-1" Cut="4.0856727600097656e+01" cType="0" res="-9.9000000000000000e+01" rms="0.0000000000000000e+00" purity="4.2294836044311523e-01" nType="-1"/>
        </Node>
        <Node pos="r" depth="1" NCoef="0" IVar="4" Cut="1.0404518890380859e+02" cType="0" res="-9.9000000000000000e+01" rms="0.0000000000000000e+00" purity="3.3719161152839661e-01" nType="0">
          <Node pos="l" depth="2" NCoef="0" IVar="3" Cut="1.1619149017333984e+02" cType="0" res="-9.9000000000000000e+01" rms="0.0000000000000000e+00" purity="4.2699590325355530e-01" nType="0">
            <Node pos="l" depth="3" NCoef="0" IVar="-1" Cut="0.0000000000000000e+00" cType="1" res="-9.9000000000000000e+01" rms="0.0000000000000000e+00" purity="5.4361325502395630e-01" nType="1"/>
            <Node pos="r" depth="3" NCoef="0" IVar="-1" Cut="0.0000000000000000e+00" cType="1" res="-9.9000000000000000e+01" rms="0.0000000000000000e+00" purity="2.7776303887367249e-01" nType="-1"/>
          </Node>
          <Node pos="r" depth="2" NCoef="0" IVar="-1" Cut="0.0000000000000000e+00" cType="1" res="-9.9000000000000000e+01" rms="0.0000000000000000e+00" purity="1.5594728291034698e-01" nType="-1"/>
        </Node>
      </Node>
    </BinaryTree>
    <BinaryTree type="DecisionTree" boostWeight="9.6790289298710239e-02" itree="10">
      <Node pos="s" depth="0" NCoef="0" IVar="5" Cut="7.1425300836563110e-01" cType="1" res="-9.9000000000000000e+01" rms="0.0000000000000000e+00" purity="4.7929406166076660e-01" nType="0">
        <Node pos="l" depth="1" NCoef="0" IVar="0" Cut="5.9503997802734375e+02" cType="0" res="-9.9000000000000000e+01" rms="0.0000000000000000e+00" purity="5.0038856267929077e-01" nType="0">
          <Node pos="l" depth="2" NCoef="0" IVar="-1" Cut="2.3820643126964569e-01" cType="1" res="-9.9000000000000000e+01" rms="0.0000000000000000e+00" purity="5.6534546613693237e-01" nType="1"/>
          <Node pos="r" depth="2" NCoef="0" IVar="-1" Cut="9.7235870361328125e-01" cType="1" res="-9.9000000000000000e+01" rms="0.0000000000000000e+00" purity="4.7065046429634094e-01" nType="-1"/>
        </Node>
        <Node pos="r" depth="1" NCoef="0" IVar="-1" Cut="8.3670389652252197e-01" cType="1" res="-9.9000000000000000e+01" rms="0.0000000000000000e+00" purity="3.1136834621429443e-01" nType="-1"/>
      </Node>
    </BinaryTree>
    <BinaryTree type="DecisionTree" boostWeight="1.3696833951434259e-01" itree="11">
      <Node pos="s" depth="0" NCoef="0" IVar="5" Cut="2.8568178415298462e-01" cType="1" res="-9.9000000000000000e+01" rms="0.0000000000000000e+00" purity="4.8519292473793030e-01" nType="0">
        <Node pos="l" depth="1" NCoef="0" IVar="7" Cut="-3.3367606997489929e-01" cType="0" res="-9.9000000000000000e+01" rms="0.0000000000000000e+00" purity="5.5696636438369751e-01" nType="0">
          <Node pos="l" depth="2" NCoef="0" IVar="0" Cut="4.2180160522460938e+02" cType="0" res="-9.9000000000000000e+01" rms="0.0000000000000000e+00" purity="5.7620006799697876e-01" nType="0">
            <Node pos="l" depth="3" NCoef="0" IVar="-1" Cut="0.0000000000000000e+00" cType="1" res="-9.9000000000000000e+01" rms="0.0000000000000000e+00" purity="5.9635156393051147e-01" nType="1"/>
            <Node pos="r" depth="3" NCoef="0" IVar="-1" Cut="0.0000000000000000e+00" cType="1" res="-9.9000000000000000e+01" rms="0.0000000000000000e+00" purity="4.5821818709373474e-01" nType="-1"/>
          </Node>
          <Node pos="r" depth="2" NCoef="0" IVar="-1" Cut="0.0000000000000000e+00" cType="1" res="-9.9000000000000000e+01" rms="0.0000000000000000e+00" purity="3.6645033955574036e-01" nType="-1"/>
        </Node>
        <Node pos="r" depth="1" NCoef="0" IVar="2" Cut="1.4988092041015625e+02" cType="0" res="-9.9000000000000000e+01" rms="0.0000000000000000e+00" purity="4.3861439824104309e-01" nType="0">
          <Node pos="l" depth="2" NCoef="0" IVar="6" Cut="5.2380591630935669e-01" cType="1" res="-9.9000000000000000e+01" rms="0.0000000000000000e+00" purity="5.6888717412948608e-01" nType="0">
            <Node pos="l" depth="3" NCoef="0" IVar="-1" Cut="0.0000000000000000e+00" cType="1" res="-9.9000000000000000e+01" rms="0.0000000000000000e+00" purity="6.3001167774200439e-01" nType="1"/>
            <Node pos="r" depth="3" NCoef="0" IVar="-1" Cut="0.0000000000000000e+00" cType="1" res="-9.9000000000000000e+01" rms="0.0000000000000000e+00" purity="4.7298333048820496e-01" nType="-1"/>
          </Node>
          <Node pos="r" depth="2" NCoef="0" IVar="-1" Cut="8.1585174798965454e-01" cType="1" res="-9.9000000000000000e+01" rms="0.0000000000000000e+00" purity="4.1299557685852051e-01" nType="-1"/>
        </Node>
      </Node>
    </BinaryTree>
    <BinaryTree type="DecisionTree" boostWeight="9.1118973977603546e-02" itree="12">
      <Node pos="s" depth="0" NCoef="0" IVar="5" Cut="3.3329617977142334e-01" cType="1" res="-9.9000000000000000e+01" rms="0.0000000000000000e+00" purity="5.0099790096282959e-01" nType="0">
        <Node pos="l" depth="1" NCoef="0" IVar="6" Cut="-1.3753147423267365e-01" cType="0" res="-9.9000000000000000e+01" rms="0.0000000000000000e+00" purity="5.4929691553115845e-01" nType="0">
          <Node pos="l" depth="2" NCoef="0" IVar="-1" Cut="5.1179467773437500e+02" cType="0" res="-9.9000000000000000e+01" rms="0.0000000000000000e+00" purity="5.6435877084732056e-01" nType="1"/>
          <Node pos="r" depth="2" NCoef="0" IVar="-1" Cut="0.0000000000000000e+00" cType="1" res="-9.9000000000000000e+01" rms="0.0000000000000000e+00" purity="3.9244934916496277e-01" nType="-1"/>
        </Node>
        <Node pos="r" depth="1" NCoef="0" IVar="5" Cut="8.4117066860198975e-01" cType="1" res="-9.9000000000000000e+01" rms="0.0000000000000000e+00" purity="4.5964056253433228e-01" nType="0">
          <Node pos="l" depth="2" NCoef="0" IVar="2" Cut="9.9897102355957031e+01" cType="0" res="-9.9000000000000000e+01" rms="0.0000000000000000e+00" purity="4.7190004587173462e-01" nType="0">
            <Node pos="l" depth="3" NCoef="0" IVar="-1" Cut="0.0000000000000000e+00" cType="1" res="-9.9000000000000000e+01" rms="0.0000000000000000e+00" purity="5.3534698486328125e-01" nType="1"/>
            <Node pos="r" depth="3" NCoef="0" IVar="-1" Cut="0.0000000000000000e+00" cType="1" res="-9.9000000000000000e+01" rms="0.0000000000000000e+00" purity="4.4737449288368225e-01" nType="-1"/>
          </Node>
          <Node pos="r" depth="2" NCoef="0" IVar="-1" Cut="0.0000000000000000e+00" cType="1" res="-9.9000000000000000e+01" rms="0.0000000000000000e+00" purity="2.8527155518531799e-01" nType="-1"/>
        </Node>
      </Node>
    </BinaryTree>
    <BinaryTree type="DecisionTree" boostWeight="7.1417435162247758e-02" itree="13">
      <Node pos="s" depth="0" NCoef="0" IVar="5" Cut="8.0948275327682495e-01" cType="1" res="-9.9000000000000000e+01" rms="0.0000000000000000e+00" purity="5.1032805442810059e-01" nType="0">
        <Node pos="l" depth="1" NCoef="0" IVar="3" Cut="9.9523681640625000e+01" cType="0" res="-9.9000000000000000e+01" rms="0.0000000000000000e+00" purity="5.2286183834075928e-01" nType="0">
          <Node pos="l" depth="2" NCoef="0" IVar="4" Cut="9.2142890930175781e+01" cType="0" res="-9.9000000000000000e+01" rms="0.0000000000000000e+00" purity="5.3745615482330322e-01" nType="0">
            <Node pos="l" depth="3" NCoef="0" IVar="-1" Cut="0.0000000000000000e+00" cType="1" res="-9.9000000000000000e+01" rms="0.0000000000000000e+00" purity="5.5065697431564331e-01" nType="1"/>
            <Node pos="r" depth="3" NCoef="0" IVar="-1" Cut="0.0000000000000000e+00" cType="1" res="-9.9000000000000000e+01" rms="0.0000000000000000e+00" purity="4.1860949993133545e-01" nType="-1"/>
          </Node>
          <Node pos="r" depth="2" NCoef="0" IVar="9" Cut="7.5008951127529144e-02" cType="0" res="-9.9000000000000000e+01" rms="0.0000000000000000e+00" purity="4.1179591417312622e-01" nType="0">
            <Node pos="l" depth="3" NCoef="0" IVar="-1" Cut="0.0000000000000000e+00" cType="1" res="-9.9000000000000000e+01" rms="0.0000000000000000e+00" purity="5.0046092271804810e-01" nType="1"/>
            <Node pos="r" depth="3" NCoef="0" IVar="-1" Cut="0.0000000000000000e+00" cType="1" res="-9.9000000000000000e+01" rms="0.0000000000000000e+00" purity="3.0800756812095642e-01" nType="-1"/>
          </Node>
        </Node>
        <Node pos="r" depth="1" NCoef="0" IVar="-1" Cut="0.0000000000000000e+00" cType="1" res="-9.9000000000000000e+01" rms="0.0000000000000000e+00" purity="2.7387568354606628e-01" nType="-1"/>
      </Node>
    </BinaryTree>
    <BinaryTree type="DecisionTree" boostWeight="7.3661574018989179e-02" itree="14">
      <Node pos="s" depth="0" NCoef="0" IVar="3" Cut="9.9523651123046875e+01" cType="0" res="-9.9000000000000000e+01" rms="0.0000000000000000e+00" purity="4.8559290170669556e-01" nType="0">
        <Node pos="l" depth="1" NCoef="0" IVar="3" Cut="1.3421687316894531e+02" cType="1" res="-9.9000000000000000e+01" rms="0.0000000000000000e+00" purity="4.9793091416358948e-01" nType="0">
          <Node pos="l" depth="2" NCoef="0" IVar="3" Cut="1.2100038146972656e+02" cType="0" res="-9.9000000000000000e+01" rms="0.0000000000000000e+00" purity="5.0684130191802979e-01" nType="0">
            <Node pos="l" depth="3" NCoef="0" IVar="-1" Cut="0.0000000000000000e+00" cType="1" res="-9.9000000000000000e+01" rms="0.0000000000000000e+00" purity="5.4936593770980835e-01" nType="1"/>
            <Node pos="r" depth="3" NCoef="0" IVar="-1" Cut="0.0000000000000000e+00" cType="1" res="-9.9000000000000000e+01" rms="0.0000000000000000e+00" purity="4.7705861926078796e-01" nType="-1"/>
          </Node>
          <Node pos="r" depth="2" NCoef="0" IVar="-1" Cut="0.0000000000000000e+00" cType="1" res="-9.9000000000000000e+01" rms="0.0000000000000000e+00" purity="3.3569109439849854e-01" nType="-1"/>
        </Node>
        <Node pos="r" depth="1" NCoef="0" IVar="5" Cut="4.2851856350898743e-01" cType="1" res="-9.9000000000000000e+01" rms="0.0000000000000000e+00" purity="3.9625242352485657e-01" nType="0">
          <Node pos="l" depth="2" NCoef="0" IVar="6" Cut="1.5401901304721832e-01" cType="1" res="-9.9000000000000000e+01" rms="0.0000000000000000e+00" purity="4.6528229117393494e-01" nType="0">
            <Node pos="l" depth="3" NCoef="0" IVar="-1" Cut="0.0000000000000000e+00" cType="1" res="-9.9000000000000000e+01" rms="0.0000000000000000e+00" purity="5.7083332538604736e-01" nType="1"/>
            <Node pos="r" depth="3" NCoef="0" IVar="-1" Cut="0.0000000000000000e+00" cType="1" res="-9.9000000000000000e+01" rms="0.0000000000000000e+00" purity="4.1394928097724915e-01" nType="-1"/>
          </Node>
          <Node pos="r" depth="2" NCoef="0" IVar="-1" Cut="0.0000000000000000e+00" cType="1" res="-9.9000000000000000e+01" rms="0.0000000000000000e+00" purity="2.7891981601715088e-01" nType="-1"/>
        </Node>
      </Node>
    </BinaryTree>
    <BinaryTree type="DecisionTree" boostWeight="8.0433556191794528e-02" itree="15">
      <Node pos="s" depth="0" NCoef="0" IVar="3" Cut="9.9523811340332031e+01" cType="0" res="-9.9000000000000000e+01" rms="0.0000000000000000e+00" purity="4.9012595415115356e-01" nType="0">
        <Node pos="l" depth="1" NCoef="0" IVar="3" Cut="1.2650753021240234e+02" cType="1" res="-9.9000000000000000e+01" rms="0.0000000000000000e+00" purity="5.0331234931945801e-01" nType="0">
          <Node pos="l" depth="2" NCoef="0" IVar="-1" Cut="1.2265257263183594e+02" cType="0" res="-9.9000000000000000e+01" rms="0.0000000000000000e+00" purity="5.2717512845993042e-01" nType="1"/>
          <Node pos="r" depth="2" NCoef="0" IVar="-1" Cut="4.9458728790283203e+01" cType="0" res="-9.9000000000000000e+01" rms="0.0000000000000000e+00" purity="4.1869336366653442e-01" nType="-1"/>
        </Node>
        <Node pos="r" depth="1" NCoef="0" IVar="5" Cut="1.9054521620273590e-01" cType="0" res="-9.9000000000000000e+01" rms="0.0000000000000000e+00" purity="3.9458674192428589e-01" nType="0">
          <Node pos="l" depth="2" NCoef="0" IVar="0" Cut="5.4532928466796875e+02" cType="1" res="-9.9000000000000000e+01" rms="0.0000000000000000e+00" purity="4.3158838152885437e-01" nType="0">
            <Node pos="l" depth="3" NCoef="0" IVar="-1" Cut="0.0000000000000000e+00" cType="1" res="-9.9000000000000000e+01" rms="0.0000000000000000e+00" purity="5.1183980703353882e-01" nType="1"/>
            <Node pos="r" depth="3" NCoef="0" IVar="-1" Cut="0.0000000000000000e+00" cType="1" res="-9.9000000000000000e+01" rms="0.0000000000000000e+00" purity="3.3760726451873779e-01" nType="-1"/>
          </Node>
          <Node pos="r" depth="2" NCoef="0" IVar="-1" Cut="0.0000000000000000e+00" cType="1" res="-9.9000000000000000e+01" rms="0.0000000000000000e+00" purity="2.7433779835700989e-01" nType="-1"/>
        </Node>
      </Node>
    </BinaryTree>
    <BinaryTree type="DecisionTree" boostWeight="8.3026156099616097e-02" itree="16">
      <Node pos="s" depth="0" NCoef="0" IVar="4" Cut="9.6904708862304688e+01" cType="0" res="-9.9000000000000000e+01" rms="0.0000000000000000e+00" purity="4.8051059246063232e-01" nType="0">
        <Node pos="l" depth="1" NCoef="0" IVar="9" Cut="8.2278996706008911e-01" cType="1" res="-9.9000000000000000e+01" rms="0.0000000000000000e+00" purity="4.9661090970039368e-01" nType="0">
          <Node pos="l" depth="2" NCoef="0" IVar="9" Cut="-5.4497927427291870e-01" cType="0" res="-9.9000000000000000e+01" rms="0.0000000000000000e+00" purity="5.1594358682632446e-01" nType="0">
            <Node pos="l" depth="3" NCoef="0" IVar="-1" Cut="0.0000000000000000e+00" cType="1" res="-9.9000000000000000e+01" rms="0.0000000000000000e+00" purity="5.4683703184127808e-01" nType="1"/>
            <Node pos="r" depth="3" NCoef="0" IVar="-1" Cut="0.0000000000000000e+00" cType="1" res="-9.9000000000000000e+01" rms="0.0000000000000000e+00" purity="4.6313092112541199e-01" nType="-1"/>
          </Node>
          <Node pos="r" depth="2" NCoef="0" IVar="2" Cut="1.5039016723632812e+02" cType="0" res="-9.9000000000000000e+01" rms="0.0000000000000000e+00" purity="4.1015398502349854e-01" nType="0">
            <Node pos="l" depth="3" NCoef="0" IVar="-1" Cut="0.0000000000000000e+00" cType="1" res="-9.9000000000000000e+01" rms="0.0000000000000000e+00" purity="5.5122566223144531e-01" nType="1"/>
            <Node pos="r" depth="3" NCoef="0" IVar="-1" Cut="0.0000000000000000e+00" cType="1" res="-9.9000000000000000e+01" rms="0.0000000000000000e+00" purity="3.7842312455177307e-01" nType="-1"/>
          </Node>
        </Node>
        <Node pos="r" depth="1" NCoef="0" IVar="-1" Cut="4.6513275146484375e+01" cType="0" res="-9.9000000000000000e+01" rms="0.0000000000000000e+00" purity="4.0576365590095520e-01" nType="-1"/>
      </Node>
    </BinaryTree>
    <BinaryTree type="DecisionTree" boostWeight="5.4917912923889492e-02" itree="17">
      <Node pos="s" depth="0" NCoef="0" IVar="2" Cut="2.7896234130859375e+02" cType="0" res="-9.9000000000000000e+01" rms="0.0000000000000000e+00" purity="4.7993606328964233e-01" nType="0">
        <Node pos="l" depth="1" NCoef="0" IVar="-1" Cut="3.6391668701171875e+02" cType="0" res="-9.9000000000000000e+01" rms="0.0000000000000000e+00" purity="6.4198821783065796e-01" nType="1"/>
        <Node pos="r" depth="1" NCoef="0" IVar="-1" Cut="7.9998308420181274e-01" cType="1" res="-9.9000000000000000e+01" rms="0.0000000000000000e+00" purity="4.6991932392120361e-01" nType="-1"/>
      </Node>
    </BinaryTree>
    <BinaryTree type="DecisionTree" boostWeight="6.0154389997334010e-02" itree="18">
      <Node pos="s" depth="0" NCoef="0" IVar="2" Cut="2.4957736206054688e+02" cType="0" res="-9.9000000000000000e+01" rms="0.0000000000000000e+00" purity="4.9530309438705444e-01" nType="0">
        <Node pos="l" depth="1" NCoef="0" IVar="-1" Cut="5.7234649658203125e+02" cType="0" res="-9.9000000000000000e+01" rms="0.0000000000000000e+00" purity="6.1511927843093872e-01" nType="1"/>
        <Node pos="r" depth="1" NCoef="0" IVar="5" Cut="7.9885125160217285e-01" cType="1" res="-9.9000000000000000e+01" rms="0.0000000000000000e+00" purity="4.8580929636955261e-01" nType="0">
          <Node pos="l" depth="2" NCoef="0" IVar="5" Cut="1.1412458866834641e-01" cType="1" res="-9.9000000000000000e+01" rms="0.0000000000000000e+00" purity="4.9717393517494202e-01" nType="0">
            <Node pos="l" depth="3" NCoef="0" IVar="-1" Cut="0.0000000000000000e+00" cType="1" res="-9.9000000000000000e+01" rms="0.0000000000000000e+00" purity="5.7205021381378174e-01" nType="1"/>
            <Node pos="r" depth="3" NCoef="0" IVar="-1" Cut="0.0000000000000000e+00" cType="1" res="-9.9000000000000000e+01" rms="0.0000000000000000e+00" purity="4.8095193505287170e-01" nType="-1"/>
          </Node>
          <Node pos="r" depth="2" NCoef="0" IVar="-1" Cut="0.0000000000000000e+00" cType="1" res="-9.9000000000000000e+01" rms="0.0000000000000000e+00" purity="2.4299491941928864e-01" nType="-1"/>
        </Node>
      </Node>
    </BinaryTree>
    <BinaryTree type="DecisionTree" boostWeight="4.8600463548383675e-02" itree="19">
      <Node pos="s" depth="0" NCoef="0" IVar="5" Cut="8.5710179805755615e-01" cType="1" res="-9.9000000000000000e+01" rms="0.0000000000000000e+00" purity="5.0583416223526001e-01" nType="0">
        <Node pos="l" depth="1" NCoef="0" IVar="7" Cut="-5.2357655763626099e-01" cType="0" res="-9.9000000000000000e+01" rms="0.0000000000000000e+00" purity="5.1263445615768433e-01" nType="0">
          <Node pos="l" depth="2" NCoef="0" IVar="-1" Cut="1.3022761535644531e+02" cType="0" res="-9.9000000000000000e+01" rms="0.0000000000000000e+00" purity="5.1858353614807129e-01" nType="1"/>
          <Node pos="r" depth="2" NCoef="0" IVar="-1" Cut="0.0000000000000000e+00" cType="1" res="-9.9000000000000000e+01" rms="0.0000000000000000e+00" purity="3.7751767039299011e-01" nType="-1"/>
        </Node>
        <Node pos="r" depth="1" NCoef="0" IVar="-1" Cut="0.0000000000000000e+00" cType="1" res="-9.9000000000000000e+01" rms="0.0000000000000000e+00" purity="2.5936254858970642e-01" nType="-1"/>
      </Node>
    </BinaryTree>
    <BinaryTree type="DecisionTree" boostWeight="5.9777172245488626e-02" itree="20">
      <Node pos="s" depth="0" NCoef="0" IVar="5" Cut="8.0948626995086670e-01" cType="1" res="-9.9000000000000000e+01" rms="0.0000000000000000e+00" purity="4.8474177718162537e-01" nType="0">
        <Node pos="l" depth="1" NCoef="0" IVar="7" Cut="4.2852729558944702e-01" cType="1" res="-9.9000000000000000e+01" rms="0.0000000000000000e+00" purity="4.9355787038803101e-01" nType="0">
          <Node pos="l" depth="2" NCoef="0" IVar="4" Cut="1.3023464965820312e+02" cType="1" res="-9.9000000000000000e+01" rms="0.0000000000000000e+00" purity="5.1628488302230835e-01" nType="0">
            <Node pos="l" depth="3" NCoef="0" IVar="-1" Cut="0.0000000000000000e+00" cType="1" res="-9.9000000000000000e+01" rms="0.0000000000000000e+00" purity="5.2634352445602417e-01" nType="1"/>
            <Node pos="r" depth="3" NCoef="0" IVar="-1" Cut="0.0000000000000000e+00" cType="1" res="-9.9000000000000000e+01" rms="0.0000000000000000e+00" purity="3.0463221669197083e-01" nType="-1"/>
          </Node>
          <Node pos="r" depth="2" NCoef="0" IVar="-1" Cut="-5.2335095405578613e-01" cType="0" res="-9.9000000000000000e+01" rms="0.0000000000000000e+00" purity="4.3386504054069519e-01" nType="-1"/>
        </Node>
        <Node pos="r" depth="1" NCoef="0" IVar="-1" Cut="0.0000000000000000e+00" cType="1" res="-9.9000000000000000e+01" rms="0.0000000000000000e+00" purity="3.0678158998489380e-01" nType="-1"/>
      </Node>
    </BinaryTree>
    <BinaryTree type="DecisionTree" boostWeight="7.5245473570418678e-02" itree="21">
      <Node pos="s" depth="0" NCoef="0" IVar="3" Cut="1.2809477233886719e+02" cType="1" res="-9.9000000000000000e+01" rms="0.0000000000000000e+00" purity="4.8782846331596375e-01" nType="0">
        <Node pos="l" depth="1" NCoef="0" IVar="3" Cut="9.5442131042480469e+01" cType="0" res="-9.9000000000000000e+01" rms="0.0000000000000000e+00" purity="5.0162959098815918e-01" nType="0">
          <Node pos="l" depth="2" NCoef="0" IVar="3" Cut="1.2032029724121094e+02" cType="0" res="-9.9000000000000000e+01" rms="0.0000000000000000e+00" purity="5.1204717159271240e-01" nType="0">
            <Node pos="l" depth="3" NCoef="0" IVar="-1" Cut="0.0000000000000000e+00" cType="1" res="-9.9000000000000000e+01" rms="0.0000000000000000e+00" purity="5.4986476898193359e-01" nType="1"/>
            <Node pos="r" depth="3" NCoef="0" IVar="-1" Cut="0.0000000000000000e+00" cType="1" res="-9.9000000000000000e+01" rms="0.0000000000000000e+00" purity="4.9492928385734558e-01" nType="-1"/>
          </Node>
          <Node pos="r" depth="2" NCoef="0" IVar="-1" Cut="9.2591415405273438e+01" cType="0" res="-9.9000000000000000e+01" rms="0.0000000000000000e+00" purity="3.8039311766624451e-01" nType="-1"/>
        </Node>
        <Node pos="r" depth="1" NCoef="0" IVar="2" Cut="4.9458728790283203e+01" cType="0" res="-9.9000000000000000e+01" rms="0.0000000000000000e+00" purity="4.0612560510635376e-01" nType="0">
          <Node pos="l" depth="2" NCoef="0" IVar="0" Cut="6.6911340332031250e+02" cType="0" res="-9.9000000000000000e+01" rms="0.0000000000000000e+00" purity="4.6065837144851685e-01" nType="0">
            <Node pos="l" depth="3" NCoef="0" IVar="-1" Cut="0.0000000000000000e+00" cType="1" res="-9.9000000000000000e+01" rms="0.0000000000000000e+00" purity="5.5816203355789185e-01" nType="1"/>
            <Node pos="r" depth="3" NCoef="0" IVar="-1" Cut="0.0000000000000000e+00" cType="1" res="-9.9000000000000000e+01" rms="0.0000000000000000e+00" purity="4.0894231200218201e-01" nType="-1"/>
          </Node>
          <Node pos="r" depth="2" NCoef="0" IVar="-1" Cut="-1.4937607944011688e-01" cType="0" res="-9.9000000000000000e+01" rms="0.0000000000000000e+00" purity="3.0937814712524414e-01" nType="-1"/>
        </Node>
      </Node>
    </BinaryTree>
    <BinaryTree type="DecisionTree" boostWeight="2.6890313006226126e-02" itree="22">
      <Node pos="s" depth="0" NCoef="0" IVar="5" Cut="8.5709941387176514e-01" cType="1" res="-9.9000000000000000e+01" rms="0.0000000000000000e+00" purity="4.9188086390495300e-01" nType="0">
        <Node pos="l" depth="1" NCoef="0" IVar="0" Cut="3.8887722778320312e+02" cType="0" res="-9.9000000000000000e+01" rms="0.0000000000000000e+00" purity="4.9670648574829102e-01" nType="0">
          <Node pos="l" depth="2" NCoef="0" IVar="2" Cut="2.7800439453125000e+02" cType="0" res="-9.9000000000000000e+01" rms="0.0000000000000000e+00" purity="5.0206625461578369e-01" nType="0">
            <Node pos="l" depth="3" NCoef="0" IVar="-1" Cut="0.0000000000000000e+00" cType="1" res="-9.9000000000000000e+01" rms="0.0000000000000000e+00" purity="6.6860342025756836e-01" nType="1"/>
            <Node pos="r" depth="3" NCoef="0" IVar="-1" Cut="0.0000000000000000e+00" cType="1" res="-9.9000000000000000e+01" rms="0.0000000000000000e+00" purity="4.9438434839248657e-01" nType="-1"/>
          </Node>
          <Node pos="r" depth="2" NCoef="0" IVar="-1" Cut="0.0000000000000000e+00" cType="1" res="-9.9000000000000000e+01" rms="0.0000000000000000e+00" purity="3.0206969380378723e-01" nType="-1"/>
        </Node>
        <Node pos="r" depth="1" NCoef="0" IVar="-1" Cut="0.0000000000000000e+00" cType="1" res="-9.9000000000000000e+01" rms="0.0000000000000000e+00" purity="3.0670064687728882e-01" nType="-1"/>
      </Node>
    </BinaryTree>
    <BinaryTree type="DecisionTree" boostWeight="7.7715654979105500e-02" itree="23">
      <Node pos="s" depth="0" NCoef="0" IVar="3" Cut="9.9523712158203125e+01" cType="0" res="-9.9000000000000000e+01" rms="0.0000000000000000e+00" purity="5.1488536596298218e-01" nType="0">
        <Node pos="l" depth="1" NCoef="0" IVar="3" Cut="1.2650752258300781e+02" cType="1" res="-9.9000000000000000e+01" rms="0.0000000000000000e+00" purity="5.2426809072494507e-01" nType="0">
          <Node pos="l" depth="2" NCoef="0" IVar="4" Cut="1.2547489929199219e+02" cType="1" res="-9.9000000000000000e+01" rms="0.0000000000000000e+00" purity="5.3906947374343872e-01" nType="0">
            <Node pos="l" depth="3" NCoef="0" IVar="-1" Cut="0.0000000000000000e+00" cType="1" res="-9.9000000000000000e+01" rms="0.0000000000000000e+00" purity="5.5289453268051147e-01" nType="1"/>
            <Node pos="r" depth="3" NCoef="0" IVar="-1" Cut="0.0000000000000000e+00" cType="1" res="-9.9000000000000000e+01" rms="0.0000000000000000e+00" purity="4.5161953568458557e-01" nType="-1"/>
          </Node>
          <Node pos="r" depth="2" NCoef="0" IVar="7" Cut="-4.7709602862596512e-02" cType="0" res="-9.9000000000000000e+01" rms="0.0000000000000000e+00" purity="4.6834087371826172e-01" nType="0">
            <Node pos="l" depth="3" NCoef="0" IVar="-1" Cut="0.0000000000000000e+00" cType="1" res="-9.9000000000000000e+01" rms="0.0000000000000000e+00" purity="5.0655364990234375e-01" nType="1"/>
            <Node pos="r" depth="3" NCoef="0" IVar="-1" Cut="0.0000000000000000e+00" cType="1" res="-9.9000000000000000e+01" rms="0.0000000000000000e+00" purity="3.3587771654129028e-01" nType="-1"/>
          </Node>
        </Node>
        <Node pos="r" depth="1" NCoef="0" IVar="5" Cut="5.7133114337921143e-01" cType="1" res="-9.9000000000000000e+01" rms="0.0000000000000000e+00" purity="4.4243207573890686e-01" nType="0">
          <Node pos="l" depth="2" NCoef="0" IVar="7" Cut="1.4255723357200623e-01" cType="1" res="-9.9000000000000000e+01" rms="0.0000000000000000e+00" purity="4.8289313912391663e-01" nType="0">
            <Node pos="l" depth="3" NCoef="0" IVar="-1" Cut="0.0000000000000000e+00" cType="1" res="-9.9000000000000000e+01" rms="0.0000000000000000e+00" purity="5.6035524606704712e-01" nType="1"/>
            <Node pos="r" depth="3" NCoef="0" IVar="-1" Cut="0.0000000000000000e+00" cType="1" res="-9.9000000000000000e+01" rms="0.0000000000000000e+00" purity="4.0187475085258484e-01" nType="-1"/>
          </Node>
          <Node pos="r" depth="2" NCoef="0" IVar="-1" Cut="0.0000000000000000e+00" cType="1" res="-9.9000000000000000e+01" rms="0.0000000000000000e+00" purity="3.0510872602462769e-01" nType="-1"/>
        </Node>
      </Node>
    </BinaryTree>
    <BinaryTree type="DecisionTree" boostWeight="4.4114598699543886e-02" itree="24">
      <Node pos="s" depth="0" NCoef="0" IVar="9" Cut="-9.7240364551544189e-01" cType="0" res="-9.9000000000000000e+01" rms="0.0000000000000000e+00" purity="4.9173355102539062e-01" nType="0">
        <Node pos="l" depth="1" NCoef="0" IVar="3" Cut="1.3285646057128906e+02" cType="1" res="-9.9000000000000000e+01" rms="0.0000000000000000e+00" purity="5.0465327501296997e-01" nType="0">
          <Node pos="l" depth="2" NCoef="0" IVar="9" Cut="1.3285436630249023e+00" cType="1" res="-9.9000000000000000e+01" rms="0.0000000000000000e+00" purity="5.1196181774139404e-01" nType="0">
            <Node pos="l" depth="3" NCoef="0" IVar="-1" Cut="0.0000000000000000e+00" cType="1" res="-9.9000000000000000e+01" rms="0.0000000000000000e+00" purity="5.2087008953094482e-01" nType="1"/>
            <Node pos="r" depth="3" NCoef="0" IVar="-1" Cut="0.0000000000000000e+00" cType="1" res="-9.9000000000000000e+01" rms="0.0000000000000000e+00" purity="3.8522672653198242e-01" nType="-1"/>
          </Node>
          <Node pos="r" depth="2" NCoef="0" IVar="-1" Cut="0.0000000000000000e+00" cType="1" res="-9.9000000000000000e+01" rms="0.0000000000000000e+00" purity="3.8378688693046570e-01" nType="-1"/>
        </Node>
        <Node pos="r" depth="1" NCoef="0" IVar="2" Cut="1.4794473266601562e+02" cType="0" res="-9.9000000000000000e+01" rms="0.0000000000000000e+00" purity="4.1623440384864807e-01" nType="0">
          <Node pos="l" depth="2" NCoef="0" IVar="-1" Cut="0.0000000000000000e+00" cType="1" res="-9.9000000000000000e+01" rms="0.0000000000000000e+00" purity="5.6002426147460938e-01" nType="1"/>
          <Node pos="r" depth="2" NCoef="0" IVar="-1" Cut="4.3130216002464294e-01" cType="0" res="-9.9000000000000000e+01" rms="0.0000000000000000e+00" purity="3.7972417473793030e-01" nType="-1"/>
        </Node>
      </Node>
    </BinaryTree>
    <BinaryTree type="DecisionTree" boostWeight="3.1640325473782455e-02" itree="25">
      <Node pos="s" depth="0" NCoef="0" IVar="6" Cut="4.8041541129350662e-02" cType="0" res="-9.9000000000000000e+01" rms="0.0000000000000000e+00" purity="4.8764380812644958e-01" nType="0">
        <Node pos="l" depth="1" NCoef="0" IVar="3" Cut="9.7142768859863281e+01" cType="0" res="-9.9000000000000000e+01" rms="0.0000000000000000e+00" purity="5.0123584270477295e-01" nType="0">
          <Node pos="l" depth="2" NCoef="0" IVar="-1" Cut="-1.2221693992614746e+00" cType="1" res="-9.9000000000000000e+01" rms="0.0000000000000000e+00" purity="5.1015836000442505e-01" nType="1"/>
          <Node pos="r" depth="2" NCoef="0" IVar="-1" Cut="1.4160504937171936e-01" cType="1" res="-9.9000000000000000e+01" rms="0.0000000000000000e+00" purity="4.0830999612808228e-01" nType="-1"/>
        </Node>
        <Node pos="r" depth="1" NCoef="0" IVar="5" Cut="3.3332473039627075e-01" cType="1" res="-9.9000000000000000e+01" rms="0.0000000000000000e+00" purity="4.2122510075569153e-01" nType="0">
          <Node pos="l" depth="2" NCoef="0" IVar="3" Cut="1.2095427703857422e+02" cType="0" res="-9.9000000000000000e+01" rms="0.0000000000000000e+00" purity="4.9445825815200806e-01" nType="0">
            <Node pos="l" depth="3" NCoef="0" IVar="-1" Cut="0.0000000000000000e+00" cType="1" res="-9.9000000000000000e+01" rms="0.0000000000000000e+00" purity="5.9060257673263550e-01" nType="1"/>
            <Node pos="r" depth="3" NCoef="0" IVar="-1" Cut="0.0000000000000000e+00" cType="1" res="-9.9000000000000000e+01" rms="0.0000000000000000e+00" purity="4.2533007264137268e-01" nType="-1"/>
          </Node>
          <Node pos="r" depth="2" NCoef="0" IVar="-1" Cut="3.7400376796722412e-01" cType="1" res="-9.9000000000000000e+01" rms="0.0000000000000000e+00" purity="3.4764626622200012e-01" nType="-1"/>
        </Node>
      </Node>
    </BinaryTree>
    <BinaryTree type="DecisionTree" boostWeight="5.7547409907954393e-02" itree="26">
      <Node pos="s" depth="0" NCoef="0" IVar="5" Cut="8.0948358774185181e-01" cType="1" res="-9.9000000000000000e+01" rms="0.0000000000000000e+00" purity="4.8284769058227539e-01" nType="0">
        <Node pos="l" depth="1" NCoef="0" IVar="7" Cut="-2.3791399598121643e-01" cType="0" res="-9.9000000000000000e+01" rms="0.0000000000000000e+00" purity="4.9097257852554321e-01" nType="0">
          <Node pos="l" depth="2" NCoef="0" IVar="9" Cut="5.2352172136306763e-01" cType="1" res="-9.9000000000000000e+01" rms="0.0000000000000000e+00" purity="5.0404816865921021e-01" nType="0">
            <Node pos="l" depth="3" NCoef="0" IVar="-1" Cut="0.0000000000000000e+00" cType="1" res="-9.9000000000000000e+01" rms="0.0000000000000000e+00" purity="5.2338778972625732e-01" nType="1"/>
            <Node pos="r" depth="3" NCoef="0" IVar="-1" Cut="0.0000000000000000e+00" cType="1" res="-9.9000000000000000e+01" rms="0.0000000000000000e+00" purity="4.5417454838752747e-01" nType="-1"/>
          </Node>
          <Node pos="r" depth="2" NCoef="0" IVar="1" Cut="-1.2111382484436035e+00" cType="1" res="-9.9000000000000000e+01" rms="0.0000000000000000e+00" purity="4.0709128975868225e-01" nType="0">
            <Node pos="l" depth="3" NCoef="0" IVar="-1" Cut="0.0000000000000000e+00" cType="1" res="-9.9000000000000000e+01" rms="0.0000000000000000e+00" purity="5.4430937767028809e-01" nType="1"/>
            <Node pos="r" depth="3" NCoef="0" IVar="-1" Cut="0.0000000000000000e+00" cType="1" res="-9.9000000000000000e+01" rms="0.0000000000000000e+00" purity="3.7067899107933044e-01" nType="-1"/>
          </Node>
        </Node>
        <Node pos="r" depth="1" NCoef="0" IVar="-1" Cut="0.0000000000000000e+00" cType="1" res="-9.9000000000000000e+01" rms="0.0000000000000000e+00" purity="3.1194853782653809e-01" nType="-1"/>
      </Node>
    </BinaryTree>
    <BinaryTree type="DecisionTree" boostWeight="3.3604842464108726e-02" itree="27">
      <Node pos="s" depth="0" NCoef="0" IVar="5" Cut="8.0948275327682495e-01" cType="1" res="-9.9000000000000000e+01" rms="0.0000000000000000e+00" purity="4.9475517868995667e-01" nType="0">
        <Node pos="l" depth="1" NCoef="0" IVar="7" Cut="-2.3802049458026886e-01" cType="0" res="-9.9000000000000000e+01" rms="0.0000000000000000e+00" purity="5.0344264507293701e-01" nType="0">
          <Node pos="l" depth="2" NCoef="0" IVar="5" Cut="6.9383585453033447e-01" cType="1" res="-9.9000000000000000e+01" rms="0.0000000000000000e+00" purity="5.1618820428848267e-01" nType="0">
            <Node pos="l" depth="3" NCoef="0" IVar="-1" Cut="0.0000000000000000e+00" cType="1" res="-9.9000000000000000e+01" rms="0.0000000000000000e+00" purity="5.2395659685134888e-01" nType="1"/>
            <Node pos="r" depth="3" NCoef="0" IVar="-1" Cut="0.0000000000000000e+00" cType="1" res="-9.9000000000000000e+01" rms="0.0000000000000000e+00" purity="4.0720096230506897e-01" nType="-1"/>
          </Node>
          <Node pos="r" depth="2" NCoef="0" IVar="-1" Cut="1.0471959114074707e+00" cType="1" res="-9.9000000000000000e+01" rms="0.0000000000000000e+00" purity="4.2275536060333252e-01" nType="-1"/>
        </Node>
        <Node pos="r" depth="1" NCoef="0" IVar="-1" Cut="0.0000000000000000e+00" cType="1" res="-9.9000000000000000e+01" rms="0.0000000000000000e+00" purity="3.0753871798515320e-01" nType="-1"/>
      </Node>
    </BinaryTree>
    <BinaryTree type="DecisionTree" boostWeight="7.8694575715051077e-02" itree="28">
      <Node pos="s" depth="0" NCoef="0" IVar="4" Cut="1.1595193481445312e+02" cType="0" res="-9.9000000000000000e+01" rms="0.0000000000000000e+00" purity="4.6872693300247192e-01" nType="0">
        <Node pos="l" depth="1" NCoef="0" IVar="0" Cut="5.5550616455078125e+02" cType="0" res="-9.9000000000000000e+01" rms="0.0000000000000000e+00" purity="5.0808352231979370e-01" nType="0">
          <Node pos="l" depth="2" NCoef="0" IVar="3" Cut="1.0428466033935547e+02" cType="0" res="-9.9000000000000000e+01" rms="0.0000000000000000e+00" purity="5.5110460519790649e-01" nType="0">
            <Node pos="l" depth="3" NCoef="0" IVar="-1" Cut="0.0000000000000000e+00" cType="1" res="-9.9000000000000000e+01" rms="0.0000000000000000e+00" purity="5.7186174392700195e-01" nType="1"/>
            <Node pos="r" depth="3" NCoef="0" IVar="-1" Cut="0.0000000000000000e+00" cType="1" res="-9.9000000000000000e+01" rms="0.0000000000000000e+00" purity="4.3391686677932739e-01" nType="-1"/>
          </Node>
          <Node pos="r" depth="2" NCoef="0" IVar="5" Cut="5.2321910858154297e-01" cType="0" res="-9.9000000000000000e+01" rms="0.0000000000000000e+00" purity="4.6491381525993347e-01" nType="0">
            <Node pos="l" depth="3" NCoef="0" IVar="-1" Cut="0.0000000000000000e+00" cType="1" res="-9.9000000000000000e+01" rms="0.0000000000000000e+00" purity="5.8625990152359009e-01" nType="1"/>
            <Node pos="r" depth="3" NCoef="0" IVar="-1" Cut="0.0000000000000000e+00" cType="1" res="-9.9000000000000000e+01" rms="0.0000000000000000e+00" purity="4.3957415223121643e-01" nType="-1"/>
          </Node>
        </Node>
        <Node pos="r" depth="1" NCoef="0" IVar="-1" Cut="7.6164603233337402e-01" cType="1" res="-9.9000000000000000e+01" rms="0.0000000000000000e+00" purity="4.4287985563278198e-01" nType="-1"/>
      </Node>
    </BinaryTree>
    <BinaryTree type="DecisionTree" boostWeight="4.4348613320269521e-02" itree="29">
      <Node pos="s" depth="0" NCoef="0" IVar="3" Cut="1.3523753356933594e+02" cType="1" res="-9.9000000000000000e+01" rms="0.0000000000000000e+00" purity="4.9748519062995911e-01" nType="0">
        <Node pos="l" depth="1" NCoef="0" IVar="5" Cut="7.6186907291412354e-01" cType="1" res="-9.9000000000000000e+01" rms="0.0000000000000000e+00" purity="5.0442844629287720e-01" nType="0">
          <Node pos="l" depth="2" NCoef="0" IVar="3" Cut="1.0938691711425781e+02" cType="1" res="-9.9000000000000000e+01" rms="0.0000000000000000e+00" purity="5.1257014274597168e-01" nType="0">
            <Node pos="l" depth="3" NCoef="0" IVar="-1" Cut="0.0000000000000000e+00" cType="1" res="-9.9000000000000000e+01" rms="0.0000000000000000e+00" purity="5.4772490262985229e-01" nType="1"/>
            <Node pos="r" depth="3" NCoef="0" IVar="-1" Cut="0.0000000000000000e+00" cType="1" res="-9.9000000000000000e+01" rms="0.0000000000000000e+00" purity="4.9468961358070374e-01" nType="-1"/>
          </Node>
          <Node pos="r" depth="2" NCoef="0" IVar="-1" Cut="8.4123557806015015e-01" cType="1" res="-9.9000000000000000e+01" rms="0.0000000000000000e+00" purity="4.0038481354713440e-01" nType="-1"/>
        </Node>
        <Node pos="r" depth="1" NCoef="0" IVar="-1" Cut="0.0000000000000000e+00" cType="1" res="-9.9000000000000000e+01" rms="0.0000000000000000e+00" purity="2.9733213782310486e-01" nType="-1"/>
      </Node>
    </BinaryTree>
    <BinaryTree type="DecisionTree" boostWeight="6.7195592525457620e-03" itree="30">
      <Node pos="s" depth="0" NCoef="0" IVar="3" Cut="9.4762016296386719e+01" cType="0" res="-9.9000000000000000e+01" rms="0.0000000000000000e+00" purity="4.8376211524009705e-01" nType="0">
        <Node pos="l" depth="1" NCoef="0" IVar="4" Cut="1.3023742675781250e+02" cType="1" res="-9.9000000000000000e+01" rms="0.0000000000000000e+00" purity="4.9052140116691589e-01" nType="0">
          <Node pos="l" depth="2" NCoef="0" IVar="4" Cut="8.7154167175292969e+01" cType="1" res="-9.9000000000000000e+01" rms="0.0000000000000000e+00" purity="4.9649524688720703e-01" nType="0">
            <Node pos="l" depth="3" NCoef="0" IVar="-1" Cut="0.0000000000000000e+00" cType="1" res="-9.9000000000000000e+01" rms="0.0000000000000000e+00" purity="6.3131046295166016e-01" nType="1"/>
            <Node pos="r" depth="3" NCoef="0" IVar="-1" Cut="0.0000000000000000e+00" cType="1" res="-9.9000000000000000e+01" rms="0.0000000000000000e+00" purity="4.9010717868804932e-01" nType="-1"/>
          </Node>
          <Node pos="r" depth="2" NCoef="0" IVar="-1" Cut="0.0000000000000000e+00" cType="1" res="-9.9000000000000000e+01" rms="0.0000000000000000e+00" purity="3.7052097916603088e-01" nType="-1"/>
        </Node>
        <Node pos="r" depth="1" NCoef="0" IVar="8" Cut="4.4887486100196838e-01" cType="0" res="-9.9000000000000000e+01" rms="0.0000000000000000e+00" purity="3.6054587364196777e-01" nType="0">
          <Node pos="l" depth="2" NCoef="0" IVar="-1" Cut="0.0000000000000000e+00" cType="1" res="-9.9000000000000000e+01" rms="0.0000000000000000e+00" purity="5.1159608364105225e-01" nType="1"/>
          <Node pos="r" depth="2" NCoef="0" IVar="-1" Cut="0.0000000000000000e+00" cType="1" res="-9.9000000000000000e+01" rms="0.0000000000000000e+00" purity="2.0180603861808777e-01" nType="-1"/>
        </Node>
      </Node>
    </BinaryTree>
    <BinaryTree type="DecisionTree" boostWeight="3.1153667648489574e-02" itree="31">
      <Node pos="s" depth="0" NCoef="0" IVar="3" Cut="9.4761856079101562e+01" cType="0" res="-9.9000000000000000e+01" rms="0.0000000000000000e+00" purity="5.0112056732177734e-01" nType="0">
        <Node pos="l" depth="1" NCoef="0" IVar="2" Cut="2.7897293090820312e+02" cType="0" res="-9.9000000000000000e+01" rms="0.0000000000000000e+00" purity="5.1126247644424438e-01" nType="0">
          <Node pos="l" depth="2" NCoef="0" IVar="-1" Cut="1.5073391795158386e-01" cType="0" res="-9.9000000000000000e+01" rms="0.0000000000000000e+00" purity="6.5498733520507812e-01" nType="1"/>
          <Node pos="r" depth="2" NCoef="0" IVar="5" Cut="7.9885125160217285e-01" cType="1" res="-9.9000000000000000e+01" rms="0.0000000000000000e+00" purity="5.0178021192550659e-01" nType="0">
            <Node pos="l" depth="3" NCoef="0" IVar="-1" Cut="0.0000000000000000e+00" cType="1" res="-9.9000000000000000e+01" rms="0.0000000000000000e+00" purity="5.0977545976638794e-01" nType="1"/>
            <Node pos="r" depth="3" NCoef="0" IVar="-1" Cut="0.0000000000000000e+00" cType="1" res="-9.9000000000000000e+01" rms="0.0000000000000000e+00" purity="3.0750894546508789e-01" nType="-1"/>
          </Node>
        </Node>
        <Node pos="r" depth="1" NCoef="0" IVar="-1" Cut="0.0000000000000000e+00" cType="1" res="-9.9000000000000000e+01" rms="0.0000000000000000e+00" purity="3.0785420536994934e-01" nType="-1"/>
      </Node>
    </BinaryTree>
    <BinaryTree type="DecisionTree" boostWeight="2.4952124094198308e-02" itree="32">
      <Node pos="s" depth="0" NCoef="0" IVar="3" Cut="9.4761856079101562e+01" cType="0" res="-9.9000000000000000e+01" rms="0.0000000000000000e+00" purity="4.8664182424545288e-01" nType="0">
        <Node pos="l" depth="1" NCoef="0" IVar="3" Cut="1.3138261413574219e+02" cType="1" res="-9.9000000000000000e+01" rms="0.0000000000000000e+00" purity="4.9369850754737854e-01" nType="0">
          <Node pos="l" depth="2" NCoef="0" IVar="3" Cut="9.6505935668945312e+01" cType="1" res="-9.9000000000000000e+01" rms="0.0000000000000000e+00" purity="5.0355052947998047e-01" nType="0">
            <Node pos="l" depth="3" NCoef="0" IVar="-1" Cut="0.0000000000000000e+00" cType="1" res="-9.9000000000000000e+01" rms="0.0000000000000000e+00" purity="6.4423096179962158e-01" nType="1"/>
            <Node pos="r" depth="3" NCoef="0" IVar="-1" Cut="0.0000000000000000e+00" cType="1" res="-9.9000000000000000e+01" rms="0.0000000000000000e+00" purity="4.9767661094665527e-01" nType="-1"/>
          </Node>
          <Node pos="r" depth="2" NCoef="0" IVar="-1" Cut="4.2827394604682922e-01" cType="1" res="-9.9000000000000000e+01" rms="0.0000000000000000e+00" purity="3.7667402625083923e-01" nType="-1"/>
        </Node>
        <Node pos="r" depth="1" NCoef="0" IVar="-1" Cut="0.0000000000000000e+00" cType="1" res="-9.9000000000000000e+01" rms="0.0000000000000000e+00" purity="3.5330554842948914e-01" nType="-1"/>
      </Node>
    </BinaryTree>
    <BinaryTree type="DecisionTree" boostWeight="4.3850985109532711e-02" itree="33">
      <Node pos="s" depth="0" NCoef="0" IVar="5" Cut="9.5226779580116272e-02" cType="1" res="-9.9000000000000000e+01" rms="0.0000000000000000e+00" purity="5.0213098526000977e-01" nType="0">
        <Node pos="l" depth="1" NCoef="0" IVar="4" Cut="1.0642545318603516e+02" cType="1" res="-9.9000000000000000e+01" rms="0.0000000000000000e+00" purity="5.7173192501068115e-01" nType="0">
          <Node pos="l" depth="2" NCoef="0" IVar="-1" Cut="0.0000000000000000e+00" cType="1" res="-9.9000000000000000e+01" rms="0.0000000000000000e+00" purity="6.1999911069869995e-01" nType="1"/>
          <Node pos="r" depth="2" NCoef="0" IVar="5" Cut="4.9885466694831848e-02" cType="0" res="-9.9000000000000000e+01" rms="0.0000000000000000e+00" purity="5.3393149375915527e-01" nType="0">
            <Node pos="l" depth="3" NCoef="0" IVar="-1" Cut="0.0000000000000000e+00" cType="1" res="-9.9000000000000000e+01" rms="0.0000000000000000e+00" purity="5.7932931184768677e-01" nType="1"/>
            <Node pos="r" depth="3" NCoef="0" IVar="-1" Cut="0.0000000000000000e+00" cType="1" res="-9.9000000000000000e+01" rms="0.0000000000000000e+00" purity="4.8897075653076172e-01" nType="-1"/>
          </Node>
        </Node>
        <Node pos="r" depth="1" NCoef="0" IVar="4" Cut="1.3023742675781250e+02" cType="1" res="-9.9000000000000000e+01" rms="0.0000000000000000e+00" purity="4.9088492989540100e-01" nType="0">
          <Node pos="l" depth="2" NCoef="0" IVar="2" Cut="4.2062400817871094e+01" cType="0" res="-9.9000000000000000e+01" rms="0.0000000000000000e+00" purity="4.9704623222351074e-01" nType="0">
            <Node pos="l" depth="3" NCoef="0" IVar="-1" Cut="0.0000000000000000e+00" cType="1" res="-9.9000000000000000e+01" rms="0.0000000000000000e+00" purity="5.1579260826110840e-01" nType="1"/>
            <Node pos="r" depth="3" NCoef="0" IVar="-1" Cut="0.0000000000000000e+00" cType="1" res="-9.9000000000000000e+01" rms="0.0000000000000000e+00" purity="4.6473625302314758e-01" nType="-1"/>
          </Node>
          <Node pos="r" depth="2" NCoef="0" IVar="-1" Cut="0.0000000000000000e+00" cType="1" res="-9.9000000000000000e+01" rms="0.0000000000000000e+00" purity="3.6500728130340576e-01" nType="-1"/>
        </Node>
      </Node>
    </BinaryTree>
    <BinaryTree type="DecisionTree" boostWeight="2.1012359885784856e-02" itree="34">
      <Node pos="s" depth="0" NCoef="0" IVar="7" Cut="-5.2379399538040161e-01" cType="0" res="-9.9000000000000000e+01" rms="0.0000000000000000e+00" purity="4.9896389245986938e-01" nType="0">
        <Node pos="l" depth="1" NCoef="0" IVar="6" Cut="8.0966037511825562e-01" cType="0" res="-9.9000000000000000e+01" rms="0.0000000000000000e+00" purity="5.0488686561584473e-01" nType="0">
          <Node pos="l" depth="2" NCoef="0" IVar="-1" Cut="0.0000000000000000e+00" cType="1" res="-9.9000000000000000e+01" rms="0.0000000000000000e+00" purity="5.8735436201095581e-01" nType="1"/>
          <Node pos="r" depth="2" NCoef="0" IVar="9" Cut="-9.7239708900451660e-01" cType="0" res="-9.9000000000000000e+01" rms="0.0000000000000000e+00" purity="4.9765601754188538e-01" nType="0">
            <Node pos="l" depth="3" NCoef="0" IVar="-1" Cut="0.0000000000000000e+00" cType="1" res="-9.9000000000000000e+01" rms="0.0000000000000000e+00" purity="5.0765925645828247e-01" nType="1"/>
            <Node pos="r" depth="3" NCoef="0" IVar="-1" Cut="0.0000000000000000e+00" cType="1" res="-9.9000000000000000e+01" rms="0.0000000000000000e+00" purity="4.2835271358489990e-01" nType="-1"/>
          </Node>
        </Node>
        <Node pos="r" depth="1" NCoef="0" IVar="-1" Cut="0.0000000000000000e+00" cType="1" res="-9.9000000000000000e+01" rms="0.0000000000000000e+00" purity="3.6232438683509827e-01" nType="-1"/>
      </Node>
    </BinaryTree>
    <BinaryTree type="DecisionTree" boostWeight="5.5213837021447651e-02" itree="35">
      <Node pos="s" depth="0" NCoef="0" IVar="2" Cut="2.9567376708984375e+02" cType="0" res="-9.9000000000000000e+01" rms="0.0000000000000000e+00" purity="4.8471060395240784e-01" nType="0">
        <Node pos="l" depth="1" NCoef="0" IVar="-1" Cut="1.1619185638427734e+02" cType="1" res="-9.9000000000000000e+01" rms="0.0000000000000000e+00" purity="5.9402632713317871e-01" nType="1"/>
        <Node pos="r" depth="1" NCoef="0" IVar="0" Cut="4.0388763427734375e+02" cType="0" res="-9.9000000000000000e+01" rms="0.0000000000000000e+00" purity="4.7803658246994019e-01" nType="0">
          <Node pos="l" depth="2" NCoef="0" IVar="5" Cut="9.4119921326637268e-02" cType="1" res="-9.9000000000000000e+01" rms="0.0000000000000000e+00" purity="4.8289060592651367e-01" nType="0">
            <Node pos="l" depth="3" NCoef="0" IVar="-1" Cut="0.0000000000000000e+00" cType="1" res="-9.9000000000000000e+01" rms="0.0000000000000000e+00" purity="5.5360329151153564e-01" nType="1"/>
            <Node pos="r" depth="3" NCoef="0" IVar="-1" Cut="0.0000000000000000e+00" cType="1" res="-9.9000000000000000e+01" rms="0.0000000000000000e+00" purity="4.7212734818458557e-01" nType="-1"/>
          </Node>
          <Node pos="r" depth="2" NCoef="0" IVar="-1" Cut="0.0000000000000000e+00" cType="1" res="-9.9000000000000000e+01" rms="0.0000000000000000e+00" purity="3.3091500401496887e-01" nType="-1"/>
        </Node>
      </Node>
    </BinaryTree>
    <BinaryTree type="DecisionTree" boostWeight="3.6519997698391919e-02" itree="36">
      <Node pos="s" depth="0" NCoef="0" IVar="5" Cut="8.5709941387176514e-01" cType="1" res="-9.9000000000000000e+01" rms="0.0000000000000000e+00" purity="5.1833438873291016e-01" nType="0">
        <Node pos="l" depth="1" NCoef="0" IVar="6" Cut="-2.3787513375282288e-01" cType="0" res="-9.9000000000000000e+01" rms="0.0000000000000000e+00" purity="5.2391552925109863e-01" nType="0">
          <Node pos="l" depth="2" NCoef="0" IVar="8" Cut="-2.2439818382263184e+00" cType="0" res="-9.9000000000000000e+01" rms="0.0000000000000000e+00" purity="5.3006786108016968e-01" nType="0">
            <Node pos="l" depth="3" NCoef="0" IVar="-1" Cut="0.0000000000000000e+00" cType="1" res="-9.9000000000000000e+01" rms="0.0000000000000000e+00" purity="5.3988265991210938e-01" nType="1"/>
            <Node pos="r" depth="3" NCoef="0" IVar="-1" Cut="0.0000000000000000e+00" cType="1" res="-9.9000000000000000e+01" rms="0.0000000000000000e+00" purity="4.6787089109420776e-01" nType="-1"/>
          </Node>
          <Node pos="r" depth="2" NCoef="0" IVar="-1" Cut="0.0000000000000000e+00" cType="1" res="-9.9000000000000000e+01" rms="0.0000000000000000e+00" purity="4.0262860059738159e-01" nType="-1"/>
        </Node>
        <Node pos="r" depth="1" NCoef="0" IVar="-1" Cut="0.0000000000000000e+00" cType="1" res="-9.9000000000000000e+01" rms="0.0000000000000000e+00" purity="2.9970589280128479e-01" nType="-1"/>
      </Node>
    </BinaryTree>
    <BinaryTree type="DecisionTree" boostWeight="4.6354702973316030e-02" itree="37">
      <Node pos="s" depth="0" NCoef="0" IVar="5" Cut="7.1425074338912964e-01" cType="1" res="-9.9000000000000000e+01" rms="0.0000000000000000e+00" purity="4.9466830492019653e-01" nType="0">
        <Node pos="l" depth="1" NCoef="0" IVar="0" Cut="4.3438345336914062e+02" cType="0" res="-9.9000000000000000e+01" rms="0.0000000000000000e+00" purity="5.0435680150985718e-01" nType="0">
          <Node pos="l" depth="2" NCoef="0" IVar="7" Cut="-5.2369832992553711e-01" cType="0" res="-9.9000000000000000e+01" rms="0.0000000000000000e+00" purity="5.1586723327636719e-01" nType="0">
            <Node pos="l" depth="3" NCoef="0" IVar="-1" Cut="0.0000000000000000e+00" cType="1" res="-9.9000000000000000e+01" rms="0.0000000000000000e+00" purity="5.2099615335464478e-01" nType="1"/>
            <Node pos="r" depth="3" NCoef="0" IVar="-1" Cut="0.0000000000000000e+00" cType="1" res="-9.9000000000000000e+01" rms="0.0000000000000000e+00" purity="3.8554045557975769e-01" nType="-1"/>
          </Node>
          <Node pos="r" depth="2" NCoef="0" IVar="4" Cut="1.0404689788818359e+02" cType="1" res="-9.9000000000000000e+01" rms="0.0000000000000000e+00" purity="4.3496918678283691e-01" nType="0">
            <Node pos="l" depth="3" NCoef="0" IVar="-1" Cut="0.0000000000000000e+00" cType="1" res="-9.9000000000000000e+01" rms="0.0000000000000000e+00" purity="5.2071946859359741e-01" nType="1"/>
            <Node pos="r" depth="3" NCoef="0" IVar="-1" Cut="0.0000000000000000e+00" cType="1" res="-9.9000000000000000e+01" rms="0.0000000000000000e+00" purity="3.5668444633483887e-01" nType="-1"/>
          </Node>
        </Node>
        <Node pos="r" depth="1" NCoef="0" IVar="3" Cut="1.1142929840087891e+02" cType="0" res="-9.9000000000000000e+01" rms="0.0000000000000000e+00" purity="4.0176448225975037e-01" nType="0">
          <Node pos="l" depth="2" NCoef="0" IVar="4" Cut="1.0642677307128906e+02" cType="0" res="-9.9000000000000000e+01" rms="0.0000000000000000e+00" purity="4.8305818438529968e-01" nType="0">
            <Node pos="l" depth="3" NCoef="0" IVar="-1" Cut="0.0000000000000000e+00" cType="1" res="-9.9000000000000000e+01" rms="0.0000000000000000e+00" purity="5.5739837884902954e-01" nType="1"/>
            <Node pos="r" depth="3" NCoef="0" IVar="-1" Cut="0.0000000000000000e+00" cType="1" res="-9.9000000000000000e+01" rms="0.0000000000000000e+00" purity="3.6539703607559204e-01" nType="-1"/>
          </Node>
          <Node pos="r" depth="2" NCoef="0" IVar="-1" Cut="0.0000000000000000e+00" cType="1" res="-9.9000000000000000e+01" rms="0.0000000000000000e+00" purity="1.9938366115093231e-01" nType="-1"/>
        </Node>
      </Node>
    </BinaryTree>
    <BinaryTree type="DecisionTree" boostWeight="4.0492234342128411e-02" itree="38">
      <Node pos="s" depth="0" NCoef="0" IVar="2" Cut="3.9417181396484375e+02" cType="0" res="-9.9000000000000000e+01" rms="0.0000000000000000e+00" purity="4.8384118080139160e-01" nType="0">
        <Node pos="l" depth="1" NCoef="0" IVar="-1" Cut="0.0000000000000000e+00" cType="1" res="-9.9000000000000000e+01" rms="0.0000000000000000e+00" purity="6.2447643280029297e-01" nType="1"/>
        <Node pos="r" depth="1" NCoef="0" IVar="-1" Cut="-2.3753039538860321e-01" cType="0" res="-9.9000000000000000e+01" rms="0.0000000000000000e+00" purity="4.7989726066589355e-01" nType="-1"/>
      </Node>
    </BinaryTree>
    <BinaryTree type="DecisionTree" boostWeight="3.3698549577576689e-02" itree="39">
      <Node pos="s" depth="0" NCoef="0" IVar="4" Cut="1.3023742675781250e+02" cType="1" res="-9.9000000000000000e+01" rms="0.0000000000000000e+00" purity="4.8003402352333069e-01" nType="0">
        <Node pos="l" depth="1" NCoef="0" IVar="3" Cut="9.4761871337890625e+01" cType="0" res="-9.9000000000000000e+01" rms="0.0000000000000000e+00" purity="4.8720127344131470e-01" nType="0">
          <Node pos="l" depth="2" NCoef="0" IVar="4" Cut="8.9308456420898438e+01" cType="0" res="-9.9000000000000000e+01" rms="0.0000000000000000e+00" purity="4.9393945932388306e-01" nType="0">
            <Node pos="l" depth="3" NCoef="0" IVar="-1" Cut="0.0000000000000000e+00" cType="1" res="-9.9000000000000000e+01" rms="0.0000000000000000e+00" purity="5.0102180242538452e-01" nType="1"/>
            <Node pos="r" depth="3" NCoef="0" IVar="-1" Cut="0.0000000000000000e+00" cType="1" res="-9.9000000000000000e+01" rms="0.0000000000000000e+00" purity="3.7906268239021301e-01" nType="-1"/>
          </Node>
          <Node pos="r" depth="2" NCoef="0" IVar="-1" Cut="0.0000000000000000e+00" cType="1" res="-9.9000000000000000e+01" rms="0.0000000000000000e+00" purity="3.5820823907852173e-01" nType="-1"/>
        </Node>
        <Node pos="r" depth="1" NCoef="0" IVar="-1" Cut="0.0000000000000000e+00" cType="1" res="-9.9000000000000000e+01" rms="0.0000000000000000e+00" purity="3.3079248666763306e-01" nType="-1"/>
      </Node>
    </BinaryTree>
    <BinaryTree type="DecisionTree" boostWeight="3.6229904497296010e-02" itree="40">
      <Node pos="s" depth="0" NCoef="0" IVar="2" Cut="2.7908016967773438e+02" cType="0" res="-9.9000000000000000e+01" rms="0.0000000000000000e+00" purity="4.8768165707588196e-01" nType="0">
        <Node pos="l" depth="1" NCoef="0" IVar="-1" Cut="7.4839532375335693e-02" cType="0" res="-9.9000000000000000e+01" rms="0.0000000000000000e+00" purity="6.0083186626434326e-01" nType="1"/>
        <Node pos="r" depth="1" NCoef="0" IVar="6" Cut="-2.3753039538860321e-01" cType="0" res="-9.9000000000000000e+01" rms="0.0000000000000000e+00" purity="4.8054310679435730e-01" nType="0">
          <Node pos="l" depth="2" NCoef="0" IVar="8" Cut="-1.6455979347229004e+00" cType="1" res="-9.9000000000000000e+01" rms="0.0000000000000000e+00" purity="4.8700094223022461e-01" nType="0">
            <Node pos="l" depth="3" NCoef="0" IVar="-1" Cut="0.0000000000000000e+00" cType="1" res="-9.9000000000000000e+01" rms="0.0000000000000000e+00" purity="5.3982442617416382e-01" nType="1"/>
            <Node pos="r" depth="3" NCoef="0" IVar="-1" Cut="0.0000000000000000e+00" cType="1" res="-9.9000000000000000e+01" rms="0.0000000000000000e+00" purity="4.7007215023040771e-01" nType="-1"/>
          </Node>
          <Node pos="r" depth="2" NCoef="0" IVar="-1" Cut="0.0000000000000000e+00" cType="1" res="-9.9000000000000000e+01" rms="0.0000000000000000e+00" purity="3.4358617663383484e-01" nType="-1"/>
        </Node>
      </Node>
    </BinaryTree>
    <BinaryTree type="DecisionTree" boostWeight="4.3365283168941303e-02" itree="41">
      <Node pos="s" depth="0" NCoef="0" IVar="7" Cut="-1.4283309876918793e-01" cType="0" res="-9.9000000000000000e+01" rms="0.0000000000000000e+00" purity="4.9650967121124268e-01" nType="0">
        <Node pos="l" depth="1" NCoef="0" IVar="5" Cut="5.7139962911605835e-01" cType="1" res="-9.9000000000000000e+01" rms="0.0000000000000000e+00" purity="5.0762659311294556e-01" nType="0">
          <Node pos="l" depth="2" NCoef="0" IVar="-1" Cut="1.0642675018310547e+02" cType="1" res="-9.9000000000000000e+01" rms="0.0000000000000000e+00" purity="5.2359300851821899e-01" nType="1"/>
          <Node pos="r" depth="2" NCoef="0" IVar="4" Cut="1.0166640472412109e+02" cType="0" res="-9.9000000000000000e+01" rms="0.0000000000000000e+00" purity="4.5123913884162903e-01" nType="0">
            <Node pos="l" depth="3" NCoef="0" IVar="-1" Cut="0.0000000000000000e+00" cType="1" res="-9.9000000000000000e+01" rms="0.0000000000000000e+00" purity="5.2053922414779663e-01" nType="1"/>
            <Node pos="r" depth="3" NCoef="0" IVar="-1" Cut="0.0000000000000000e+00" cType="1" res="-9.9000000000000000e+01" rms="0.0000000000000000e+00" purity="2.4609993398189545e-01" nType="-1"/>
          </Node>
        </Node>
        <Node pos="r" depth="1" NCoef="0" IVar="1" Cut="-3.3169332146644592e-01" cType="1" res="-9.9000000000000000e+01" rms="0.0000000000000000e+00" purity="4.4731292128562927e-01" nType="0">
          <Node pos="l" depth="2" NCoef="0" IVar="5" Cut="4.7619497776031494e-01" cType="0" res="-9.9000000000000000e+01" rms="0.0000000000000000e+00" purity="4.9407142400741577e-01" nType="0">
            <Node pos="l" depth="3" NCoef="0" IVar="-1" Cut="0.0000000000000000e+00" cType="1" res="-9.9000000000000000e+01" rms="0.0000000000000000e+00" purity="5.7791841030120850e-01" nType="1"/>
            <Node pos="r" depth="3" NCoef="0" IVar="-1" Cut="0.0000000000000000e+00" cType="1" res="-9.9000000000000000e+01" rms="0.0000000000000000e+00" purity="4.4269439578056335e-01" nType="-1"/>
          </Node>
          <Node pos="r" depth="2" NCoef="0" IVar="-1" Cut="8.3404373168945312e+01" cType="0" res="-9.9000000000000000e+01" rms="0.0000000000000000e+00" purity="4.0580478310585022e-01" nType="-1"/>
        </Node>
      </Node>
    </BinaryTree>
    <BinaryTree type="DecisionTree" boostWeight="3.4682618164511049e-02" itree="42">
      <Node pos="s" depth="0" NCoef="0" IVar="7" Cut="2.3810924589633942e-01" cType="1" res="-9.9000000000000000e+01" rms="0.0000000000000000e+00" purity="4.9296411871910095e-01" nType="0">
        <Node pos="l" depth="1" NCoef="0" IVar="4" Cut="1.3023413085937500e+02" cType="1" res="-9.9000000000000000e+01" rms="0.0000000000000000e+00" purity="5.1869231462478638e-01" nType="0">
          <Node pos="l" depth="2" NCoef="0" IVar="6" Cut="-2.3787513375282288e-01" cType="0" res="-9.9000000000000000e+01" rms="0.0000000000000000e+00" purity="5.2656388282775879e-01" nType="0">
            <Node pos="l" depth="3" NCoef="0" IVar="-1" Cut="0.0000000000000000e+00" cType="1" res="-9.9000000000000000e+01" rms="0.0000000000000000e+00" purity="5.3401654958724976e-01" nType="1"/>
            <Node pos="r" depth="3" NCoef="0" IVar="-1" Cut="0.0000000000000000e+00" cType="1" res="-9.9000000000000000e+01" rms="0.0000000000000000e+00" purity="4.1481295228004456e-01" nType="-1"/>
          </Node>
          <Node pos="r" depth="2" NCoef="0" IVar="-1" Cut="0.0000000000000000e+00" cType="1" res="-9.9000000000000000e+01" rms="0.0000000000000000e+00" purity="3.6339607834815979e-01" nType="-1"/>
        </Node>
        <Node pos="r" depth="1" NCoef="0" IVar="4" Cut="8.7380973815917969e+01" cType="1" res="-9.9000000000000000e+01" rms="0.0000000000000000e+00" purity="4.6269926428794861e-01" nType="0">
          <Node pos="l" depth="2" NCoef="0" IVar="-1" Cut="0.0000000000000000e+00" cType="1" res="-9.9000000000000000e+01" rms="0.0000000000000000e+00" purity="6.0735541582107544e-01" nType="1"/>
          <Node pos="r" depth="2" NCoef="0" IVar="-1" Cut="1.2809446716308594e+02" cType="1" res="-9.9000000000000000e+01" rms="0.0000000000000000e+00" purity="4.5432081818580627e-01" nType="-1"/>
        </Node>
      </Node>
    </BinaryTree>
    <BinaryTree type="DecisionTree" boostWeight="2.9313351292355027e-02" itree="43">
      <Node pos="s" depth="0" NCoef="0" IVar="7" Cut="-2.3802903294563293e-01" cType="0" res="-9.9000000000000000e+01" rms="0.0000000000000000e+00" purity="4.8377770185470581e-01" nType="0">
        <Node pos="l" depth="1" NCoef="0" IVar="6" Cut="8.0967336893081665e-01" cType="0" res="-9.9000000000000000e+01" rms="0.0000000000000000e+00" purity="4.9469774961471558e-01" nType="0">
          <Node pos="l" depth="2" NCoef="0" IVar="-1" Cut="0.0000000000000000e+00" cType="1" res="-9.9000000000000000e+01" rms="0.0000000000000000e+00" purity="5.8752107620239258e-01" nType="1"/>
          <Node pos="r" depth="2" NCoef="0" IVar="6" Cut="2.9326358437538147e-01" cType="1" res="-9.9000000000000000e+01" rms="0.0000000000000000e+00" purity="4.8686325550079346e-01" nType="0">
            <Node pos="l" depth="3" NCoef="0" IVar="-1" Cut="0.0000000000000000e+00" cType="1" res="-9.9000000000000000e+01" rms="0.0000000000000000e+00" purity="5.1574432849884033e-01" nType="1"/>
            <Node pos="r" depth="3" NCoef="0" IVar="-1" Cut="0.0000000000000000e+00" cType="1" res="-9.9000000000000000e+01" rms="0.0000000000000000e+00" purity="4.6742871403694153e-01" nType="-1"/>
          </Node>
        </Node>
        <Node pos="r" depth="1" NCoef="0" IVar="-1" Cut="1.0666666412353516e+02" cType="0" res="-9.9000000000000000e+01" rms="0.0000000000000000e+00" purity="4.1227462887763977e-01" nType="-1"/>
      </Node>
    </BinaryTree>
    <BinaryTree type="DecisionTree" boostWeight="3.2754616203425284e-02" itree="44">
      <Node pos="s" depth="0" NCoef="0" IVar="3" Cut="1.3523738098144531e+02" cType="1" res="-9.9000000000000000e+01" rms="0.0000000000000000e+00" purity="4.7707113623619080e-01" nType="0">
        <Node pos="l" depth="1" NCoef="0" IVar="8" Cut="-2.2439956665039062e+00" cType="0" res="-9.9000000000000000e+01" rms="0.0000000000000000e+00" purity="4.8361885547637939e-01" nType="0">
          <Node pos="l" depth="2" NCoef="0" IVar="8" Cut="-1.7310547828674316e+00" cType="1" res="-9.9000000000000000e+01" rms="0.0000000000000000e+00" purity="4.9277773499488831e-01" nType="0">
            <Node pos="l" depth="3" NCoef="0" IVar="-1" Cut="0.0000000000000000e+00" cType="1" res="-9.9000000000000000e+01" rms="0.0000000000000000e+00" purity="5.6260758638381958e-01" nType="1"/>
            <Node pos="r" depth="3" NCoef="0" IVar="-1" Cut="0.0000000000000000e+00" cType="1" res="-9.9000000000000000e+01" rms="0.0000000000000000e+00" purity="4.8508217930793762e-01" nType="-1"/>
          </Node>
          <Node pos="r" depth="2" NCoef="0" IVar="-1" Cut="5.2354449033737183e-01" cType="1" res="-9.9000000000000000e+01" rms="0.0000000000000000e+00" purity="4.2368406057357788e-01" nType="-1"/>
        </Node>
        <Node pos="r" depth="1" NCoef="0" IVar="-1" Cut="0.0000000000000000e+00" cType="1" res="-9.9000000000000000e+01" rms="0.0000000000000000e+00" purity="2.7980539202690125e-01" nType="-1"/>
      </Node>
    </BinaryTree>
    <BinaryTree type="DecisionTree" boostWeight="2.8751230494355993e-02" itree="45">
      <Node pos="s" depth="0" NCoef="0" IVar="3" Cut="1.3523736572265625e+02" cType="1" res="-9.9000000000000000e+01" rms="0.0000000000000000e+00" purity="4.8439785838127136e-01" nType="0">
        <Node pos="l" depth="1" NCoef="0" IVar="4" Cut="9.4523544311523438e+01" cType="0" res="-9.9000000000000000e+01" rms="0.0000000000000000e+00" purity="4.9063280224800110e-01" nType="0">
          <Node pos="l" depth="2" NCoef="0" IVar="6" Cut="-3.3272412419319153e-01" cType="0" res="-9.9000000000000000e+01" rms="0.0000000000000000e+00" purity="5.0152683258056641e-01" nType="0">
            <Node pos="l" depth="3" NCoef="0" IVar="-1" Cut="0.0000000000000000e+00" cType="1" res="-9.9000000000000000e+01" rms="0.0000000000000000e+00" purity="5.0668931007385254e-01" nType="1"/>
            <Node pos="r" depth="3" NCoef="0" IVar="-1" Cut="0.0000000000000000e+00" cType="1" res="-9.9000000000000000e+01" rms="0.0000000000000000e+00" purity="3.5240167379379272e-01" nType="-1"/>
          </Node>
          <Node pos="r" depth="2" NCoef="0" IVar="-1" Cut="3.8228649139404297e+01" cType="0" res="-9.9000000000000000e+01" rms="0.0000000000000000e+00" purity="4.1973254084587097e-01" nType="-1"/>
        </Node>
        <Node pos="r" depth="1" NCoef="0" IVar="-1" Cut="0.0000000000000000e+00" cType="1" res="-9.9000000000000000e+01" rms="0.0000000000000000e+00" purity="2.7767664194107056e-01" nType="-1"/>
      </Node>
    </BinaryTree>
    <BinaryTree type="DecisionTree" boostWeight="4.2055509259565770e-02" itree="46">
      <Node pos="s" depth="0" NCoef="0" IVar="3" Cut="9.7142791748046875e+01" cType="0" res="-9.9000000000000000e+01" rms="0.0000000000000000e+00" purity="4.8538339138031006e-01" nType="0">
        <Node pos="l" depth="1" NCoef="0" IVar="3" Cut="1.2571385955810547e+02" cType="1" res="-9.9000000000000000e+01" rms="0.0000000000000000e+00" purity="4.9248525500297546e-01" nType="0">
          <Node pos="l" depth="2" NCoef="0" IVar="8" Cut="-1.9447762966156006e+00" cType="0" res="-9.9000000000000000e+01" rms="0.0000000000000000e+00" purity="5.0641214847564697e-01" nType="0">
            <Node pos="l" depth="3" NCoef="0" IVar="-1" Cut="0.0000000000000000e+00" cType="1" res="-9.9000000000000000e+01" rms="0.0000000000000000e+00" purity="5.1933562755584717e-01" nType="1"/>
            <Node pos="r" depth="3" NCoef="0" IVar="-1" Cut="0.0000000000000000e+00" cType="1" res="-9.9000000000000000e+01" rms="0.0000000000000000e+00" purity="4.4425904750823975e-01" nType="-1"/>
          </Node>
          <Node pos="r" depth="2" NCoef="0" IVar="-1" Cut="4.9549484252929688e+01" cType="0" res="-9.9000000000000000e+01" rms="0.0000000000000000e+00" purity="4.4689425826072693e-01" nType="-1"/>
        </Node>
        <Node pos="r" depth="1" NCoef="0" IVar="-1" Cut="3.8093596696853638e-01" cType="1" res="-9.9000000000000000e+01" rms="0.0000000000000000e+00" purity="4.0629851818084717e-01" nType="-1"/>
      </Node>
    </BinaryTree>
    <BinaryTree type="DecisionTree" boostWeight="3.8532343570674046e-02" itree="47">
      <Node pos="s" depth="0" NCoef="0" IVar="3" Cut="9.4761856079101562e+01" cType="0" res="-9.9000000000000000e+01" rms="0.0000000000000000e+00" purity="4.8571240901947021e-01" nType="0">
        <Node pos="l" depth="1" NCoef="0" IVar="1" Cut="-7.3211354017257690e-01" cType="1" res="-9.9000000000000000e+01" rms="0.0000000000000000e+00" purity="4.9270644783973694e-01" nType="0">
          <Node pos="l" depth="2" NCoef="0" IVar="4" Cut="1.2547251892089844e+02" cType="1" res="-9.9000000000000000e+01" rms="0.0000000000000000e+00" purity="5.3963011503219604e-01" nType="0">
            <Node pos="l" depth="3" NCoef="0" IVar="-1" Cut="0.0000000000000000e+00" cType="1" res="-9.9000000000000000e+01" rms="0.0000000000000000e+00" purity="5.6002050638198853e-01" nType="1"/>
            <Node pos="r" depth="3" NCoef="0" IVar="-1" Cut="0.0000000000000000e+00" cType="1" res="-9.9000000000000000e+01" rms="0.0000000000000000e+00" purity="4.1037902235984802e-01" nType="-1"/>
          </Node>
          <Node pos="r" depth="2" NCoef="0" IVar="-1" Cut="-1.4240464568138123e-01" cType="0" res="-9.9000000000000000e+01" rms="0.0000000000000000e+00" purity="4.7914007306098938e-01" nType="-1"/>
        </Node>
        <Node pos="r" depth="1" NCoef="0" IVar="-1" Cut="0.0000000000000000e+00" cType="1" res="-9.9000000000000000e+01" rms="0.0000000000000000e+00" purity="3.4470617771148682e-01" nType="-1"/>
      </Node>
    </BinaryTree>
    <BinaryTree type="DecisionTree" boostWeight="2.0450806963624973e-02" itree="48">
      <Node pos="s" depth="0" NCoef="0" IVar="2" Cut="2.8062957763671875e+02" cType="0" res="-9.9000000000000000e+01" rms="0.0000000000000000e+00" purity="4.8810493946075439e-01" nType="0">
        <Node pos="l" depth="1" NCoef="0" IVar="-1" Cut="5.7151424884796143e-01" cType="0" res="-9.9000000000000000e+01" rms="0.0000000000000000e+00" purity="5.9860724210739136e-01" nType="1"/>
        <Node pos="r" depth="1" NCoef="0" IVar="-1" Cut="7.9998540878295898e-01" cType="1" res="-9.9000000000000000e+01" rms="0.0000000000000000e+00" purity="4.8137658834457397e-01" nType="-1"/>
      </Node>
    </BinaryTree>
    <BinaryTree type="DecisionTree" boostWeight="2.1439209245075315e-02" itree="49">
      <Node pos="s" depth="0" NCoef="0" IVar="9" Cut="-1.2715079784393311e+00" cType="0" res="-9.9000000000000000e+01" rms="0.0000000000000000e+00" purity="5.0062549114227295e-01" nType="0">
        <Node pos="l" depth="1" NCoef="0" IVar="1" Cut="7.5703316926956177e-01" cType="0" res="-9.9000000000000000e+01" rms="0.0000000000000000e+00" purity="5.0709748268127441e-01" nType="0">
          <Node pos="l" depth="2" NCoef="0" IVar="3" Cut="1.1619016265869141e+02" cType="0" res="-9.9000000000000000e+01" rms="0.0000000000000000e+00" purity="5.5311828851699829e-01" nType="0">
            <Node pos="l" depth="3" NCoef="0" IVar="-1" Cut="0.0000000000000000e+00" cType="1" res="-9.9000000000000000e+01" rms="0.0000000000000000e+00" purity="6.0752493143081665e-01" nType="1"/>
            <Node pos="r" depth="3" NCoef="0" IVar="-1" Cut="0.0000000000000000e+00" cType="1" res="-9.9000000000000000e+01" rms="0.0000000000000000e+00" purity="4.9146315455436707e-01" nType="-1"/>
          </Node>
          <Node pos="r" depth="2" NCoef="0" IVar="4" Cut="1.3023742675781250e+02" cType="1" res="-9.9000000000000000e+01" rms="0.0000000000000000e+00" purity="4.9490576982498169e-01" nType="0">
            <Node pos="l" depth="3" NCoef="0" IVar="-1" Cut="0.0000000000000000e+00" cType="1" res="-9.9000000000000000e+01" rms="0.0000000000000000e+00" purity="5.0051742792129517e-01" nType="1"/>
            <Node pos="r" depth="3" NCoef="0" IVar="-1" Cut="0.0000000000000000e+00" cType="1" res="-9.9000000000000000e+01" rms="0.0000000000000000e+00" purity="3.8255837559700012e-01" nType="-1"/>
          </Node>
        </Node>
        <Node pos="r" depth="1" NCoef="0" IVar="-1" Cut="1.2094961547851562e+02" cType="0" res="-9.9000000000000000e+01" rms="0.0000000000000000e+00" purity="4.1332700848579407e-01" nType="-1"/>
      </Node>
    </BinaryTree>
    <BinaryTree type="DecisionTree" boostWeight="3.0798462676934067e-02" itree="50">
      <Node pos="s" depth="0" NCoef="0" IVar="8" Cut="-1.9447809457778931e+00" cType="0" res="-9.9000000000000000e+01" rms="0.0000000000000000e+00" purity="5.0256764888763428e-01" nType="0">
        <Node pos="l" depth="1" NCoef="0" IVar="1" Cut="3.4151676297187805e-01" cType="0" res="-9.9000000000000000e+01" rms="0.0000000000000000e+00" purity="5.1509767770767212e-01" nType="0">
          <Node pos="l" depth="2" NCoef="0" IVar="7" Cut="-4.7579269856214523e-02" cType="0" res="-9.9000000000000000e+01" rms="0.0000000000000000e+00" purity="5.5491644144058228e-01" nType="0">
            <Node pos="l" depth="3" NCoef="0" IVar="-1" Cut="0.0000000000000000e+00" cType="1" res="-9.9000000000000000e+01" rms="0.0000000000000000e+00" purity="5.8515286445617676e-01" nType="1"/>
            <Node pos="r" depth="3" NCoef="0" IVar="-1" Cut="0.0000000000000000e+00" cType="1" res="-9.9000000000000000e+01" rms="0.0000000000000000e+00" purity="4.6382907032966614e-01" nType="-1"/>
          </Node>
          <Node pos="r" depth="2" NCoef="0" IVar="7" Cut="5.2370232343673706e-01" cType="1" res="-9.9000000000000000e+01" rms="0.0000000000000000e+00" purity="4.9182987213134766e-01" nType="0">
            <Node pos="l" depth="3" NCoef="0" IVar="-1" Cut="0.0000000000000000e+00" cType="1" res="-9.9000000000000000e+01" rms="0.0000000000000000e+00" purity="5.0706452131271362e-01" nType="1"/>
            <Node pos="r" depth="3" NCoef="0" IVar="-1" Cut="0.0000000000000000e+00" cType="1" res="-9.9000000000000000e+01" rms="0.0000000000000000e+00" purity="4.2772880196571350e-01" nType="-1"/>
          </Node>
        </Node>
        <Node pos="r" depth="1" NCoef="0" IVar="1" Cut="-9.4017177820205688e-01" cType="1" res="-9.9000000000000000e+01" rms="0.0000000000000000e+00" purity="4.4572728872299194e-01" nType="0">
          <Node pos="l" depth="2" NCoef="0" IVar="-1" Cut="0.0000000000000000e+00" cType="1" res="-9.9000000000000000e+01" rms="0.0000000000000000e+00" purity="5.4591840505599976e-01" nType="1"/>
          <Node pos="r" depth="2" NCoef="0" IVar="-1" Cut="-6.7310172319412231e-01" cType="0" res="-9.9000000000000000e+01" rms="0.0000000000000000e+00" purity="4.2593646049499512e-01" nType="-1"/>
        </Node>
      </Node>
    </BinaryTree>
    <BinaryTree type="DecisionTree" boostWeight="4.0170051677336158e-02" itree="51">
      <Node pos="s" depth="0" NCoef="0" IVar="3" Cut="1.3523754882812500e+02" cType="1" res="-9.9000000000000000e+01" rms="0.0000000000000000e+00" purity="5.0228190422058105e-01" nType="0">
        <Node pos="l" depth="1" NCoef="0" IVar="1" Cut="3.2947227358818054e-01" cType="0" res="-9.9000000000000000e+01" rms="0.0000000000000000e+00" purity="5.0699681043624878e-01" nType="0">
          <Node pos="l" depth="2" NCoef="0" IVar="0" Cut="4.1900708007812500e+02" cType="0" res="-9.9000000000000000e+01" rms="0.0000000000000000e+00" purity="5.3432732820510864e-01" nType="0">
            <Node pos="l" depth="3" NCoef="0" IVar="-1" Cut="0.0000000000000000e+00" cType="1" res="-9.9000000000000000e+01" rms="0.0000000000000000e+00" purity="5.5028170347213745e-01" nType="1"/>
            <Node pos="r" depth="3" NCoef="0" IVar="-1" Cut="0.0000000000000000e+00" cType="1" res="-9.9000000000000000e+01" rms="0.0000000000000000e+00" purity="3.6402001976966858e-01" nType="-1"/>
          </Node>
          <Node pos="r" depth="2" NCoef="0" IVar="-1" Cut="8.7403607177734375e+02" cType="1" res="-9.9000000000000000e+01" rms="0.0000000000000000e+00" purity="4.9164322018623352e-01" nType="-1"/>
        </Node>
        <Node pos="r" depth="1" NCoef="0" IVar="-1" Cut="0.0000000000000000e+00" cType="1" res="-9.9000000000000000e+01" rms="0.0000000000000000e+00" purity="3.6350044608116150e-01" nType="-1"/>
      </Node>
    </BinaryTree>
    <BinaryTree type="DecisionTree" boostWeight="2.0608675277231685e-02" itree="52">
      <Node pos="s" depth="0" NCoef="0" IVar="3" Cut="1.3047554016113281e+02" cType="1" res="-9.9000000000000000e+01" rms="0.0000000000000000e+00" purity="4.9598285555839539e-01" nType="0">
        <Node pos="l" depth="1" NCoef="0" IVar="7" Cut="1.4284904301166534e-01" cType="0" res="-9.9000000000000000e+01" rms="0.0000000000000000e+00" purity="5.0431120395660400e-01" nType="0">
          <Node pos="l" depth="2" NCoef="0" IVar="4" Cut="9.4523590087890625e+01" cType="0" res="-9.9000000000000000e+01" rms="0.0000000000000000e+00" purity="5.2398329973220825e-01" nType="0">
            <Node pos="l" depth="3" NCoef="0" IVar="-1" Cut="0.0000000000000000e+00" cType="1" res="-9.9000000000000000e+01" rms="0.0000000000000000e+00" purity="5.3579485416412354e-01" nType="1"/>
            <Node pos="r" depth="3" NCoef="0" IVar="-1" Cut="0.0000000000000000e+00" cType="1" res="-9.9000000000000000e+01" rms="0.0000000000000000e+00" purity="4.4887593388557434e-01" nType="-1"/>
          </Node>
          <Node pos="r" depth="2" NCoef="0" IVar="0" Cut="6.6743975830078125e+02" cType="0" res="-9.9000000000000000e+01" rms="0.0000000000000000e+00" purity="4.7650384902954102e-01" nType="0">
            <Node pos="l" depth="3" NCoef="0" IVar="-1" Cut="0.0000000000000000e+00" cType="1" res="-9.9000000000000000e+01" rms="0.0000000000000000e+00" purity="5.4368191957473755e-01" nType="1"/>
            <Node pos="r" depth="3" NCoef="0" IVar="-1" Cut="0.0000000000000000e+00" cType="1" res="-9.9000000000000000e+01" rms="0.0000000000000000e+00" purity="4.5853090286254883e-01" nType="-1"/>
          </Node>
        </Node>
        <Node pos="r" depth="1" NCoef="0" IVar="-1" Cut="-1.1779018491506577e-01" cType="1" res="-9.9000000000000000e+01" rms="0.0000000000000000e+00" purity="4.1031661629676819e-01" nType="-1"/>
      </Node>
    </BinaryTree>
    <BinaryTree type="DecisionTree" boostWeight="3.4946134879592985e-02" itree="53">
      <Node pos="s" depth="0" NCoef="0" IVar="5" Cut="7.6186722517013550e-01" cType="1" res="-9.9000000000000000e+01" rms="0.0000000000000000e+00" purity="4.9133378267288208e-01" nType="0">
        <Node pos="l" depth="1" NCoef="0" IVar="0" Cut="4.3652624511718750e+02" cType="0" res="-9.9000000000000000e+01" rms="0.0000000000000000e+00" purity="4.9941968917846680e-01" nType="0">
          <Node pos="l" depth="2" NCoef="0" IVar="3" Cut="1.0904747772216797e+02" cType="1" res="-9.9000000000000000e+01" rms="0.0000000000000000e+00" purity="5.1250469684600830e-01" nType="0">
            <Node pos="l" depth="3" NCoef="0" IVar="-1" Cut="0.0000000000000000e+00" cType="1" res="-9.9000000000000000e+01" rms="0.0000000000000000e+00" purity="5.4576021432876587e-01" nType="1"/>
            <Node pos="r" depth="3" NCoef="0" IVar="-1" Cut="0.0000000000000000e+00" cType="1" res="-9.9000000000000000e+01" rms="0.0000000000000000e+00" purity="4.9846383929252625e-01" nType="-1"/>
          </Node>
          <Node pos="r" depth="2" NCoef="0" IVar="0" Cut="4.1360763549804688e+02" cType="0" res="-9.9000000000000000e+01" rms="0.0000000000000000e+00" purity="4.1806095838546753e-01" nType="0">
            <Node pos="l" depth="3" NCoef="0" IVar="-1" Cut="0.0000000000000000e+00" cType="1" res="-9.9000000000000000e+01" rms="0.0000000000000000e+00" purity="5.3021335601806641e-01" nType="1"/>
            <Node pos="r" depth="3" NCoef="0" IVar="-1" Cut="0.0000000000000000e+00" cType="1" res="-9.9000000000000000e+01" rms="0.0000000000000000e+00" purity="3.0005991458892822e-01" nType="-1"/>
          </Node>
        </Node>
        <Node pos="r" depth="1" NCoef="0" IVar="-1" Cut="1.0880694580078125e+02" cType="0" res="-9.9000000000000000e+01" rms="0.0000000000000000e+00" purity="3.7137004733085632e-01" nType="-1"/>
      </Node>
    </BinaryTree>
    <BinaryTree type="DecisionTree" boostWeight="3.2475452337051736e-02" itree="54">
      <Node pos="s" depth="0" NCoef="0" IVar="7" Cut="6.1894196271896362e-01" cType="1" res="-9.9000000000000000e+01" rms="0.0000000000000000e+00" purity="5.1838576793670654e-01" nType="0">
        <Node pos="l" depth="1" NCoef="0" IVar="7" Cut="-2.2905334830284119e-01" cType="0" res="-9.9000000000000000e+01" rms="0.0000000000000000e+00" purity="5.2752333879470825e-01" nType="0">
          <Node pos="l" depth="2" NCoef="0" IVar="5" Cut="7.6179301738739014e-01" cType="1" res="-9.9000000000000000e+01" rms="0.0000000000000000e+00" purity="5.3823149204254150e-01" nType="0">
            <Node pos="l" depth="3" NCoef="0" IVar="-1" Cut="0.0000000000000000e+00" cType="1" res="-9.9000000000000000e+01" rms="0.0000000000000000e+00" purity="5.4595834016799927e-01" nType="1"/>
            <Node pos="r" depth="3" NCoef="0" IVar="-1" Cut="0.0000000000000000e+00" cType="1" res="-9.9000000000000000e+01" rms="0.0000000000000000e+00" purity="3.9767447113990784e-01" nType="-1"/>
          </Node>
          <Node pos="r" depth="2" NCoef="0" IVar="1" Cut="1.1970193386077881e+00" cType="0" res="-9.9000000000000000e+01" rms="0.0000000000000000e+00" purity="4.7568565607070923e-01" nType="0">
            <Node pos="l" depth="3" NCoef="0" IVar="-1" Cut="0.0000000000000000e+00" cType="1" res="-9.9000000000000000e+01" rms="0.0000000000000000e+00" purity="6.2791180610656738e-01" nType="1"/>
